=== Run information ===

Scheme:       weka.classifiers.trees.J48 -C 0.25 -M 2
Relation:     segments
Instances:    13514
Attributes:   6
              seg-0
              seg-1
              seg-2
              seg-3
              seg-4
              class
Test mode:    10-fold cross-validation

=== Classifier model (full training set) ===

J48 pruned tree
------------------

seg-3 <= 120
|   seg-1 <= 110
|   |   seg-4 <= 81
|   |   |   seg-0 <= 85
|   |   |   |   seg-2 <= 70
|   |   |   |   |   seg-1 <= 67: VT (171.0/37.0)
|   |   |   |   |   seg-1 > 67
|   |   |   |   |   |   seg-2 <= 65
|   |   |   |   |   |   |   seg-0 <= 45
|   |   |   |   |   |   |   |   seg-4 <= 42: VFL (2.0)
|   |   |   |   |   |   |   |   seg-4 > 42
|   |   |   |   |   |   |   |   |   seg-0 <= 33: VT (2.0)
|   |   |   |   |   |   |   |   |   seg-0 > 33: VF (9.0/5.0)
|   |   |   |   |   |   |   seg-0 > 45
|   |   |   |   |   |   |   |   seg-0 <= 74: VT (92.0/24.0)
|   |   |   |   |   |   |   |   seg-0 > 74
|   |   |   |   |   |   |   |   |   seg-2 <= 43: VF (2.0)
|   |   |   |   |   |   |   |   |   seg-2 > 43
|   |   |   |   |   |   |   |   |   |   seg-3 <= 105: VT (11.0/4.0)
|   |   |   |   |   |   |   |   |   |   seg-3 > 105: VFL (3.0/1.0)
|   |   |   |   |   |   seg-2 > 65
|   |   |   |   |   |   |   seg-3 <= 105
|   |   |   |   |   |   |   |   seg-1 <= 95
|   |   |   |   |   |   |   |   |   seg-1 <= 74
|   |   |   |   |   |   |   |   |   |   seg-0 <= 74: VT (28.0/11.0)
|   |   |   |   |   |   |   |   |   |   seg-0 > 74: VFL (15.0/6.0)
|   |   |   |   |   |   |   |   |   seg-1 > 74
|   |   |   |   |   |   |   |   |   |   seg-4 <= 63: VT (8.0/1.0)
|   |   |   |   |   |   |   |   |   |   seg-4 > 63
|   |   |   |   |   |   |   |   |   |   |   seg-0 <= 74
|   |   |   |   |   |   |   |   |   |   |   |   seg-0 <= 65: VT (6.0/1.0)
|   |   |   |   |   |   |   |   |   |   |   |   seg-0 > 65: VFL (9.0/2.0)
|   |   |   |   |   |   |   |   |   |   |   seg-0 > 74
|   |   |   |   |   |   |   |   |   |   |   |   seg-3 <= 75: VFL (3.0/1.0)
|   |   |   |   |   |   |   |   |   |   |   |   seg-3 > 75: VT (15.0/4.0)
|   |   |   |   |   |   |   |   seg-1 > 95
|   |   |   |   |   |   |   |   |   seg-0 <= 65: VFL (6.0/1.0)
|   |   |   |   |   |   |   |   |   seg-0 > 65: VF (2.0/1.0)
|   |   |   |   |   |   |   seg-3 > 105: VF (5.0/1.0)
|   |   |   |   seg-2 > 70
|   |   |   |   |   seg-4 <= 54
|   |   |   |   |   |   seg-3 <= 115
|   |   |   |   |   |   |   seg-2 <= 85
|   |   |   |   |   |   |   |   seg-4 <= 42: VF (5.0/2.0)
|   |   |   |   |   |   |   |   seg-4 > 42: ASYS (4.0/2.0)
|   |   |   |   |   |   |   seg-2 > 85
|   |   |   |   |   |   |   |   seg-1 <= 65
|   |   |   |   |   |   |   |   |   seg-0 <= 65: VT (15.0/2.0)
|   |   |   |   |   |   |   |   |   seg-0 > 65
|   |   |   |   |   |   |   |   |   |   seg-2 <= 135: VF (5.0/1.0)
|   |   |   |   |   |   |   |   |   |   seg-2 > 135: VFL (2.0/1.0)
|   |   |   |   |   |   |   |   seg-1 > 65
|   |   |   |   |   |   |   |   |   seg-4 <= 30: VF (5.0/2.0)
|   |   |   |   |   |   |   |   |   seg-4 > 30
|   |   |   |   |   |   |   |   |   |   seg-2 <= 115
|   |   |   |   |   |   |   |   |   |   |   seg-1 <= 95
|   |   |   |   |   |   |   |   |   |   |   |   seg-0 <= 45: VF (2.0/1.0)
|   |   |   |   |   |   |   |   |   |   |   |   seg-0 > 45: VT (10.0/3.0)
|   |   |   |   |   |   |   |   |   |   |   seg-1 > 95
|   |   |   |   |   |   |   |   |   |   |   |   seg-4 <= 42: VT (2.0)
|   |   |   |   |   |   |   |   |   |   |   |   seg-4 > 42: VF (2.0)
|   |   |   |   |   |   |   |   |   |   seg-2 > 115
|   |   |   |   |   |   |   |   |   |   |   seg-3 <= 95: VF (9.0/2.0)
|   |   |   |   |   |   |   |   |   |   |   seg-3 > 95: VT (4.0/2.0)
|   |   |   |   |   |   seg-3 > 115: VF (5.0)
|   |   |   |   |   seg-4 > 54
|   |   |   |   |   |   seg-2 <= 115
|   |   |   |   |   |   |   seg-3 <= 75
|   |   |   |   |   |   |   |   seg-2 <= 93
|   |   |   |   |   |   |   |   |   seg-1 <= 50: VFL (5.0)
|   |   |   |   |   |   |   |   |   seg-1 > 50
|   |   |   |   |   |   |   |   |   |   seg-4 <= 63: VT (11.0/2.0)
|   |   |   |   |   |   |   |   |   |   seg-4 > 63
|   |   |   |   |   |   |   |   |   |   |   seg-4 <= 75
|   |   |   |   |   |   |   |   |   |   |   |   seg-1 <= 85
|   |   |   |   |   |   |   |   |   |   |   |   |   seg-1 <= 74: VT (7.0/3.0)
|   |   |   |   |   |   |   |   |   |   |   |   |   seg-1 > 74: VF (3.0/1.0)
|   |   |   |   |   |   |   |   |   |   |   |   seg-1 > 85: VFL (6.0)
|   |   |   |   |   |   |   |   |   |   |   seg-4 > 75: VT (24.0/9.0)
|   |   |   |   |   |   |   |   seg-2 > 93: VT (33.0/9.0)
|   |   |   |   |   |   |   seg-3 > 75: VT (101.0/45.0)
|   |   |   |   |   |   seg-2 > 115
|   |   |   |   |   |   |   seg-3 <= 85
|   |   |   |   |   |   |   |   seg-4 <= 63
|   |   |   |   |   |   |   |   |   seg-1 <= 65
|   |   |   |   |   |   |   |   |   |   seg-0 <= 40: VT (2.0)
|   |   |   |   |   |   |   |   |   |   seg-0 > 40
|   |   |   |   |   |   |   |   |   |   |   seg-0 <= 65: VFL (7.0/2.0)
|   |   |   |   |   |   |   |   |   |   |   seg-0 > 65: VF (2.0)
|   |   |   |   |   |   |   |   |   seg-1 > 65: N (3.0/1.0)
|   |   |   |   |   |   |   |   seg-4 > 63
|   |   |   |   |   |   |   |   |   seg-1 <= 74
|   |   |   |   |   |   |   |   |   |   seg-4 <= 75
|   |   |   |   |   |   |   |   |   |   |   seg-1 <= 43: VF (2.0/1.0)
|   |   |   |   |   |   |   |   |   |   |   seg-1 > 43: VT (13.0/1.0)
|   |   |   |   |   |   |   |   |   |   seg-4 > 75
|   |   |   |   |   |   |   |   |   |   |   seg-2 <= 145: VT (3.0/1.0)
|   |   |   |   |   |   |   |   |   |   |   seg-2 > 145: VFL (2.0)
|   |   |   |   |   |   |   |   |   seg-1 > 74
|   |   |   |   |   |   |   |   |   |   seg-1 <= 85: VF (8.0/1.0)
|   |   |   |   |   |   |   |   |   |   seg-1 > 85
|   |   |   |   |   |   |   |   |   |   |   seg-2 <= 135: VF (2.0)
|   |   |   |   |   |   |   |   |   |   |   seg-2 > 135: VT (4.0)
|   |   |   |   |   |   |   seg-3 > 85
|   |   |   |   |   |   |   |   seg-1 <= 65
|   |   |   |   |   |   |   |   |   seg-1 <= 55: VF (6.0/2.0)
|   |   |   |   |   |   |   |   |   seg-1 > 55: VT (5.0)
|   |   |   |   |   |   |   |   seg-1 > 65
|   |   |   |   |   |   |   |   |   seg-3 <= 115: VF (9.0/3.0)
|   |   |   |   |   |   |   |   |   seg-3 > 115: VT (3.0/1.0)
|   |   |   seg-0 > 85
|   |   |   |   seg-2 <= 101
|   |   |   |   |   seg-0 <= 145
|   |   |   |   |   |   seg-2 <= 85
|   |   |   |   |   |   |   seg-1 <= 85
|   |   |   |   |   |   |   |   seg-4 <= 30: ASYS (3.0/2.0)
|   |   |   |   |   |   |   |   seg-4 > 30
|   |   |   |   |   |   |   |   |   seg-1 <= 55
|   |   |   |   |   |   |   |   |   |   seg-2 <= 75
|   |   |   |   |   |   |   |   |   |   |   seg-0 <= 95: VT (9.0)
|   |   |   |   |   |   |   |   |   |   |   seg-0 > 95
|   |   |   |   |   |   |   |   |   |   |   |   seg-4 <= 54: VF (3.0)
|   |   |   |   |   |   |   |   |   |   |   |   seg-4 > 54: VT (11.0/2.0)
|   |   |   |   |   |   |   |   |   |   seg-2 > 75
|   |   |   |   |   |   |   |   |   |   |   seg-4 <= 54: ASYS (2.0/1.0)
|   |   |   |   |   |   |   |   |   |   |   seg-4 > 54
|   |   |   |   |   |   |   |   |   |   |   |   seg-3 <= 85: VT (4.0/1.0)
|   |   |   |   |   |   |   |   |   |   |   |   seg-3 > 85: VF (5.0/1.0)
|   |   |   |   |   |   |   |   |   seg-1 > 55
|   |   |   |   |   |   |   |   |   |   seg-1 <= 65: VT (26.0/6.0)
|   |   |   |   |   |   |   |   |   |   seg-1 > 65
|   |   |   |   |   |   |   |   |   |   |   seg-4 <= 75
|   |   |   |   |   |   |   |   |   |   |   |   seg-3 <= 75
|   |   |   |   |   |   |   |   |   |   |   |   |   seg-4 <= 54: VFL (3.0)
|   |   |   |   |   |   |   |   |   |   |   |   |   seg-4 > 54
|   |   |   |   |   |   |   |   |   |   |   |   |   |   seg-1 <= 74
|   |   |   |   |   |   |   |   |   |   |   |   |   |   |   seg-0 <= 125
|   |   |   |   |   |   |   |   |   |   |   |   |   |   |   |   seg-0 <= 95: VFL (2.0)
|   |   |   |   |   |   |   |   |   |   |   |   |   |   |   |   seg-0 > 95
|   |   |   |   |   |   |   |   |   |   |   |   |   |   |   |   |   seg-2 <= 75: VT (5.0/1.0)
|   |   |   |   |   |   |   |   |   |   |   |   |   |   |   |   |   seg-2 > 75: VF (2.0/1.0)
|   |   |   |   |   |   |   |   |   |   |   |   |   |   |   seg-0 > 125: VFL (4.0)
|   |   |   |   |   |   |   |   |   |   |   |   |   |   seg-1 > 74: VT (4.0/1.0)
|   |   |   |   |   |   |   |   |   |   |   |   seg-3 > 75: VT (17.0/3.0)
|   |   |   |   |   |   |   |   |   |   |   seg-4 > 75
|   |   |   |   |   |   |   |   |   |   |   |   seg-1 <= 74
|   |   |   |   |   |   |   |   |   |   |   |   |   seg-0 <= 120
|   |   |   |   |   |   |   |   |   |   |   |   |   |   seg-3 <= 80: VF (2.0)
|   |   |   |   |   |   |   |   |   |   |   |   |   |   seg-3 > 80: VFL (4.0/1.0)
|   |   |   |   |   |   |   |   |   |   |   |   |   seg-0 > 120: VT (3.0/1.0)
|   |   |   |   |   |   |   |   |   |   |   |   seg-1 > 74: VFL (9.0/5.0)
|   |   |   |   |   |   |   seg-1 > 85
|   |   |   |   |   |   |   |   seg-4 <= 42: VF (13.0/5.0)
|   |   |   |   |   |   |   |   seg-4 > 42
|   |   |   |   |   |   |   |   |   seg-0 <= 95
|   |   |   |   |   |   |   |   |   |   seg-1 <= 95: VF (10.0/1.0)
|   |   |   |   |   |   |   |   |   |   seg-1 > 95: VT (6.0/1.0)
|   |   |   |   |   |   |   |   |   seg-0 > 95: VT (36.0/14.0)
|   |   |   |   |   |   seg-2 > 85
|   |   |   |   |   |   |   seg-4 <= 54
|   |   |   |   |   |   |   |   seg-2 <= 95
|   |   |   |   |   |   |   |   |   seg-4 <= 42
|   |   |   |   |   |   |   |   |   |   seg-3 <= 85
|   |   |   |   |   |   |   |   |   |   |   seg-0 <= 115: VT (3.0/1.0)
|   |   |   |   |   |   |   |   |   |   |   seg-0 > 115: VF (2.0)
|   |   |   |   |   |   |   |   |   |   seg-3 > 85: VT (3.0)
|   |   |   |   |   |   |   |   |   seg-4 > 42
|   |   |   |   |   |   |   |   |   |   seg-1 <= 55
|   |   |   |   |   |   |   |   |   |   |   seg-0 <= 120: VT (2.0)
|   |   |   |   |   |   |   |   |   |   |   seg-0 > 120: VF (2.0)
|   |   |   |   |   |   |   |   |   |   seg-1 > 55: VF (6.0)
|   |   |   |   |   |   |   |   seg-2 > 95
|   |   |   |   |   |   |   |   |   seg-1 <= 74: VF (6.0/1.0)
|   |   |   |   |   |   |   |   |   seg-1 > 74: VT (4.0/1.0)
|   |   |   |   |   |   |   seg-4 > 54
|   |   |   |   |   |   |   |   seg-1 <= 95
|   |   |   |   |   |   |   |   |   seg-4 <= 63
|   |   |   |   |   |   |   |   |   |   seg-3 <= 85
|   |   |   |   |   |   |   |   |   |   |   seg-0 <= 110: VFL (2.0)
|   |   |   |   |   |   |   |   |   |   |   seg-0 > 110: VF (3.0/1.0)
|   |   |   |   |   |   |   |   |   |   seg-3 > 85
|   |   |   |   |   |   |   |   |   |   |   seg-1 <= 80: VT (5.0/1.0)
|   |   |   |   |   |   |   |   |   |   |   seg-1 > 80: VF (2.0/1.0)
|   |   |   |   |   |   |   |   |   seg-4 > 63
|   |   |   |   |   |   |   |   |   |   seg-4 <= 75: VT (10.0/4.0)
|   |   |   |   |   |   |   |   |   |   seg-4 > 75: VF (27.0/14.0)
|   |   |   |   |   |   |   |   seg-1 > 95: VFL (6.0/2.0)
|   |   |   |   |   seg-0 > 145
|   |   |   |   |   |   seg-1 <= 85
|   |   |   |   |   |   |   seg-4 <= 63
|   |   |   |   |   |   |   |   seg-3 <= 75: VT (12.0/2.0)
|   |   |   |   |   |   |   |   seg-3 > 75
|   |   |   |   |   |   |   |   |   seg-0 <= 230
|   |   |   |   |   |   |   |   |   |   seg-1 <= 43: VF (5.0)
|   |   |   |   |   |   |   |   |   |   seg-1 > 43
|   |   |   |   |   |   |   |   |   |   |   seg-2 <= 85
|   |   |   |   |   |   |   |   |   |   |   |   seg-4 <= 42: VF (3.0)
|   |   |   |   |   |   |   |   |   |   |   |   seg-4 > 42: VT (7.0/1.0)
|   |   |   |   |   |   |   |   |   |   |   seg-2 > 85: VT (3.0)
|   |   |   |   |   |   |   |   |   seg-0 > 230: VT (3.0/1.0)
|   |   |   |   |   |   |   seg-4 > 63
|   |   |   |   |   |   |   |   seg-0 <= 185: N (7.0/4.0)
|   |   |   |   |   |   |   |   seg-0 > 185
|   |   |   |   |   |   |   |   |   seg-3 <= 70: VF (4.0)
|   |   |   |   |   |   |   |   |   seg-3 > 70: VT (4.0/1.0)
|   |   |   |   |   |   seg-1 > 85
|   |   |   |   |   |   |   seg-2 <= 75
|   |   |   |   |   |   |   |   seg-2 <= 43: VF (3.0)
|   |   |   |   |   |   |   |   seg-2 > 43
|   |   |   |   |   |   |   |   |   seg-0 <= 160: VF (2.0)
|   |   |   |   |   |   |   |   |   seg-0 > 160: VT (4.0)
|   |   |   |   |   |   |   seg-2 > 75
|   |   |   |   |   |   |   |   seg-4 <= 54: VFL (3.0/1.0)
|   |   |   |   |   |   |   |   seg-4 > 54
|   |   |   |   |   |   |   |   |   seg-3 <= 95
|   |   |   |   |   |   |   |   |   |   seg-1 <= 95
|   |   |   |   |   |   |   |   |   |   |   seg-0 <= 165: N (2.0/1.0)
|   |   |   |   |   |   |   |   |   |   |   seg-0 > 165: HGEA (2.0/1.0)
|   |   |   |   |   |   |   |   |   |   seg-1 > 95
|   |   |   |   |   |   |   |   |   |   |   seg-3 <= 85: ASYS (2.0)
|   |   |   |   |   |   |   |   |   |   |   seg-3 > 85: N (2.0)
|   |   |   |   |   |   |   |   |   seg-3 > 95: VT (4.0/1.0)
|   |   |   |   seg-2 > 101
|   |   |   |   |   seg-1 <= 94
|   |   |   |   |   |   seg-2 <= 161
|   |   |   |   |   |   |   seg-0 <= 105
|   |   |   |   |   |   |   |   seg-3 <= 60
|   |   |   |   |   |   |   |   |   seg-1 <= 55: VF (4.0/1.0)
|   |   |   |   |   |   |   |   |   seg-1 > 55: VT (6.0)
|   |   |   |   |   |   |   |   seg-3 > 60
|   |   |   |   |   |   |   |   |   seg-2 <= 145
|   |   |   |   |   |   |   |   |   |   seg-0 <= 95: VT (12.0/7.0)
|   |   |   |   |   |   |   |   |   |   seg-0 > 95
|   |   |   |   |   |   |   |   |   |   |   seg-4 <= 60: VF (2.0)
|   |   |   |   |   |   |   |   |   |   |   seg-4 > 60: VT (3.0/1.0)
|   |   |   |   |   |   |   |   |   seg-2 > 145
|   |   |   |   |   |   |   |   |   |   seg-0 <= 95: VF (2.0)
|   |   |   |   |   |   |   |   |   |   seg-0 > 95: VFL (3.0)
|   |   |   |   |   |   |   seg-0 > 105
|   |   |   |   |   |   |   |   seg-0 <= 230
|   |   |   |   |   |   |   |   |   seg-3 <= 85
|   |   |   |   |   |   |   |   |   |   seg-1 <= 85
|   |   |   |   |   |   |   |   |   |   |   seg-4 <= 63
|   |   |   |   |   |   |   |   |   |   |   |   seg-0 <= 165
|   |   |   |   |   |   |   |   |   |   |   |   |   seg-0 <= 135
|   |   |   |   |   |   |   |   |   |   |   |   |   |   seg-4 <= 54
|   |   |   |   |   |   |   |   |   |   |   |   |   |   |   seg-0 <= 115: VT (2.0)
|   |   |   |   |   |   |   |   |   |   |   |   |   |   |   seg-0 > 115: ASYS (3.0/1.0)
|   |   |   |   |   |   |   |   |   |   |   |   |   |   seg-4 > 54: VF (4.0/1.0)
|   |   |   |   |   |   |   |   |   |   |   |   |   seg-0 > 135: VF (4.0)
|   |   |   |   |   |   |   |   |   |   |   |   seg-0 > 165: VT (3.0)
|   |   |   |   |   |   |   |   |   |   |   seg-4 > 63: VT (13.0/7.0)
|   |   |   |   |   |   |   |   |   |   seg-1 > 85: AFIB (3.0/2.0)
|   |   |   |   |   |   |   |   |   seg-3 > 85: VT (37.0/9.0)
|   |   |   |   |   |   |   |   seg-0 > 230: VF (4.0/2.0)
|   |   |   |   |   |   seg-2 > 161
|   |   |   |   |   |   |   seg-4 <= 69
|   |   |   |   |   |   |   |   seg-3 <= 105
|   |   |   |   |   |   |   |   |   seg-2 <= 270
|   |   |   |   |   |   |   |   |   |   seg-2 <= 169: N (2.0/1.0)
|   |   |   |   |   |   |   |   |   |   seg-2 > 169: VF (12.0/2.0)
|   |   |   |   |   |   |   |   |   seg-2 > 270: VT (3.0)
|   |   |   |   |   |   |   |   seg-3 > 105: VT (3.0/1.0)
|   |   |   |   |   |   |   seg-4 > 69
|   |   |   |   |   |   |   |   seg-1 <= 60
|   |   |   |   |   |   |   |   |   seg-0 <= 160: VF (3.0)
|   |   |   |   |   |   |   |   |   seg-0 > 160: N (2.0)
|   |   |   |   |   |   |   |   seg-1 > 60
|   |   |   |   |   |   |   |   |   seg-1 <= 74: VT (3.0)
|   |   |   |   |   |   |   |   |   seg-1 > 74: N (5.0/1.0)
|   |   |   |   |   seg-1 > 94
|   |   |   |   |   |   seg-4 <= 63
|   |   |   |   |   |   |   seg-0 <= 235: VT (21.0/4.0)
|   |   |   |   |   |   |   seg-0 > 235: BI (2.0/1.0)
|   |   |   |   |   |   seg-4 > 63
|   |   |   |   |   |   |   seg-0 <= 135
|   |   |   |   |   |   |   |   seg-0 <= 95: SVTA (3.0/2.0)
|   |   |   |   |   |   |   |   seg-0 > 95
|   |   |   |   |   |   |   |   |   seg-3 <= 95
|   |   |   |   |   |   |   |   |   |   seg-0 <= 115: VF (3.0)
|   |   |   |   |   |   |   |   |   |   seg-0 > 115
|   |   |   |   |   |   |   |   |   |   |   seg-3 <= 70: N (2.0)
|   |   |   |   |   |   |   |   |   |   |   seg-3 > 70: VF (3.0/1.0)
|   |   |   |   |   |   |   |   |   seg-3 > 95: N (4.0)
|   |   |   |   |   |   |   seg-0 > 135
|   |   |   |   |   |   |   |   seg-3 <= 75: VT (3.0)
|   |   |   |   |   |   |   |   seg-3 > 75: ASYS (2.0/1.0)
|   |   seg-4 > 81
|   |   |   seg-1 <= 100
|   |   |   |   seg-3 <= 71
|   |   |   |   |   seg-4 <= 225
|   |   |   |   |   |   seg-3 <= 68
|   |   |   |   |   |   |   seg-1 <= 60
|   |   |   |   |   |   |   |   seg-2 <= 115
|   |   |   |   |   |   |   |   |   seg-1 <= 43
|   |   |   |   |   |   |   |   |   |   seg-3 <= 55
|   |   |   |   |   |   |   |   |   |   |   seg-1 <= 34: VFL (2.0/1.0)
|   |   |   |   |   |   |   |   |   |   |   seg-1 > 34
|   |   |   |   |   |   |   |   |   |   |   |   seg-4 <= 135: VT (9.0/1.0)
|   |   |   |   |   |   |   |   |   |   |   |   seg-4 > 135: VF (3.0/1.0)
|   |   |   |   |   |   |   |   |   |   seg-3 > 55
|   |   |   |   |   |   |   |   |   |   |   seg-4 <= 125: VF (2.0)
|   |   |   |   |   |   |   |   |   |   |   seg-4 > 125: N (3.0/1.0)
|   |   |   |   |   |   |   |   |   seg-1 > 43: VT (68.0/15.0)
|   |   |   |   |   |   |   |   seg-2 > 115
|   |   |   |   |   |   |   |   |   seg-1 <= 43
|   |   |   |   |   |   |   |   |   |   seg-3 <= 30: VF (3.0)
|   |   |   |   |   |   |   |   |   |   seg-3 > 30
|   |   |   |   |   |   |   |   |   |   |   seg-4 <= 105: VF (6.0/1.0)
|   |   |   |   |   |   |   |   |   |   |   seg-4 > 105: VT (24.0/4.0)
|   |   |   |   |   |   |   |   |   seg-1 > 43
|   |   |   |   |   |   |   |   |   |   seg-0 <= 54: VF (5.0)
|   |   |   |   |   |   |   |   |   |   seg-0 > 54
|   |   |   |   |   |   |   |   |   |   |   seg-2 <= 135
|   |   |   |   |   |   |   |   |   |   |   |   seg-0 <= 95
|   |   |   |   |   |   |   |   |   |   |   |   |   seg-1 <= 55
|   |   |   |   |   |   |   |   |   |   |   |   |   |   seg-4 <= 120: VF (3.0)
|   |   |   |   |   |   |   |   |   |   |   |   |   |   seg-4 > 120: VT (2.0)
|   |   |   |   |   |   |   |   |   |   |   |   |   seg-1 > 55
|   |   |   |   |   |   |   |   |   |   |   |   |   |   seg-0 <= 65: VF (2.0/1.0)
|   |   |   |   |   |   |   |   |   |   |   |   |   |   seg-0 > 65: VFL (3.0/1.0)
|   |   |   |   |   |   |   |   |   |   |   |   seg-0 > 95: VF (7.0)
|   |   |   |   |   |   |   |   |   |   |   seg-2 > 135
|   |   |   |   |   |   |   |   |   |   |   |   seg-2 <= 145: VT (5.0/1.0)
|   |   |   |   |   |   |   |   |   |   |   |   seg-2 > 145: VF (16.0/8.0)
|   |   |   |   |   |   |   seg-1 > 60
|   |   |   |   |   |   |   |   seg-2 <= 92
|   |   |   |   |   |   |   |   |   seg-1 <= 74: VT (21.0/10.0)
|   |   |   |   |   |   |   |   |   seg-1 > 74
|   |   |   |   |   |   |   |   |   |   seg-3 <= 55: VT (48.0/16.0)
|   |   |   |   |   |   |   |   |   |   seg-3 > 55
|   |   |   |   |   |   |   |   |   |   |   seg-4 <= 155
|   |   |   |   |   |   |   |   |   |   |   |   seg-0 <= 95: VF (9.0/1.0)
|   |   |   |   |   |   |   |   |   |   |   |   seg-0 > 95
|   |   |   |   |   |   |   |   |   |   |   |   |   seg-0 <= 160: VT (4.0)
|   |   |   |   |   |   |   |   |   |   |   |   |   seg-0 > 160: VF (2.0)
|   |   |   |   |   |   |   |   |   |   |   seg-4 > 155: VT (4.0/1.0)
|   |   |   |   |   |   |   |   seg-2 > 92
|   |   |   |   |   |   |   |   |   seg-3 <= 30
|   |   |   |   |   |   |   |   |   |   seg-1 <= 74: VFL (2.0/1.0)
|   |   |   |   |   |   |   |   |   |   seg-1 > 74
|   |   |   |   |   |   |   |   |   |   |   seg-4 <= 155: VF (3.0)
|   |   |   |   |   |   |   |   |   |   |   seg-4 > 155: VFL (3.0/1.0)
|   |   |   |   |   |   |   |   |   seg-3 > 30
|   |   |   |   |   |   |   |   |   |   seg-0 <= 92
|   |   |   |   |   |   |   |   |   |   |   seg-1 <= 85
|   |   |   |   |   |   |   |   |   |   |   |   seg-2 <= 155
|   |   |   |   |   |   |   |   |   |   |   |   |   seg-0 <= 54: VT (11.0/4.0)
|   |   |   |   |   |   |   |   |   |   |   |   |   seg-0 > 54
|   |   |   |   |   |   |   |   |   |   |   |   |   |   seg-4 <= 105: VF (4.0)
|   |   |   |   |   |   |   |   |   |   |   |   |   |   seg-4 > 105
|   |   |   |   |   |   |   |   |   |   |   |   |   |   |   seg-1 <= 74: VT (9.0/2.0)
|   |   |   |   |   |   |   |   |   |   |   |   |   |   |   seg-1 > 74
|   |   |   |   |   |   |   |   |   |   |   |   |   |   |   |   seg-3 <= 42: VT (5.0/2.0)
|   |   |   |   |   |   |   |   |   |   |   |   |   |   |   |   seg-3 > 42: VF (2.0)
|   |   |   |   |   |   |   |   |   |   |   |   seg-2 > 155
|   |   |   |   |   |   |   |   |   |   |   |   |   seg-3 <= 42: ASYS (3.0/1.0)
|   |   |   |   |   |   |   |   |   |   |   |   |   seg-3 > 42: VT (4.0/1.0)
|   |   |   |   |   |   |   |   |   |   |   seg-1 > 85
|   |   |   |   |   |   |   |   |   |   |   |   seg-3 <= 42: VT (9.0/3.0)
|   |   |   |   |   |   |   |   |   |   |   |   seg-3 > 42
|   |   |   |   |   |   |   |   |   |   |   |   |   seg-0 <= 85: VF (13.0/4.0)
|   |   |   |   |   |   |   |   |   |   |   |   |   seg-0 > 85
|   |   |   |   |   |   |   |   |   |   |   |   |   |   seg-2 <= 105: VF (3.0/1.0)
|   |   |   |   |   |   |   |   |   |   |   |   |   |   seg-2 > 105
|   |   |   |   |   |   |   |   |   |   |   |   |   |   |   seg-4 <= 95: VT (3.0/1.0)
|   |   |   |   |   |   |   |   |   |   |   |   |   |   |   seg-4 > 95: VFL (5.0/1.0)
|   |   |   |   |   |   |   |   |   |   seg-0 > 92
|   |   |   |   |   |   |   |   |   |   |   seg-4 <= 195
|   |   |   |   |   |   |   |   |   |   |   |   seg-0 <= 160
|   |   |   |   |   |   |   |   |   |   |   |   |   seg-4 <= 95: N (3.0/1.0)
|   |   |   |   |   |   |   |   |   |   |   |   |   seg-4 > 95
|   |   |   |   |   |   |   |   |   |   |   |   |   |   seg-2 <= 125
|   |   |   |   |   |   |   |   |   |   |   |   |   |   |   seg-4 <= 137
|   |   |   |   |   |   |   |   |   |   |   |   |   |   |   |   seg-0 <= 145: VF (5.0/1.0)
|   |   |   |   |   |   |   |   |   |   |   |   |   |   |   |   seg-0 > 145: VFL (2.0/1.0)
|   |   |   |   |   |   |   |   |   |   |   |   |   |   |   seg-4 > 137: VT (4.0/1.0)
|   |   |   |   |   |   |   |   |   |   |   |   |   |   seg-2 > 125: VF (16.0/6.0)
|   |   |   |   |   |   |   |   |   |   |   |   seg-0 > 160: VF (9.0/5.0)
|   |   |   |   |   |   |   |   |   |   |   seg-4 > 195
|   |   |   |   |   |   |   |   |   |   |   |   seg-3 <= 50: N (2.0)
|   |   |   |   |   |   |   |   |   |   |   |   seg-3 > 50: ASYS (2.0/1.0)
|   |   |   |   |   |   seg-3 > 68
|   |   |   |   |   |   |   seg-2 <= 75
|   |   |   |   |   |   |   |   seg-1 <= 43: VFL (3.0/1.0)
|   |   |   |   |   |   |   |   seg-1 > 43
|   |   |   |   |   |   |   |   |   seg-4 <= 135: VT (26.0/11.0)
|   |   |   |   |   |   |   |   |   seg-4 > 135
|   |   |   |   |   |   |   |   |   |   seg-1 <= 74: VT (7.0/1.0)
|   |   |   |   |   |   |   |   |   |   seg-1 > 74: VF (7.0/2.0)
|   |   |   |   |   |   |   seg-2 > 75
|   |   |   |   |   |   |   |   seg-0 <= 135
|   |   |   |   |   |   |   |   |   seg-4 <= 165
|   |   |   |   |   |   |   |   |   |   seg-1 <= 65: VT (18.0/3.0)
|   |   |   |   |   |   |   |   |   |   seg-1 > 65
|   |   |   |   |   |   |   |   |   |   |   seg-0 <= 85
|   |   |   |   |   |   |   |   |   |   |   |   seg-4 <= 95: VF (5.0)
|   |   |   |   |   |   |   |   |   |   |   |   seg-4 > 95
|   |   |   |   |   |   |   |   |   |   |   |   |   seg-0 <= 54: VF (3.0)
|   |   |   |   |   |   |   |   |   |   |   |   |   seg-0 > 54
|   |   |   |   |   |   |   |   |   |   |   |   |   |   seg-4 <= 130: VT (4.0/1.0)
|   |   |   |   |   |   |   |   |   |   |   |   |   |   seg-4 > 130: VF (3.0/1.0)
|   |   |   |   |   |   |   |   |   |   |   seg-0 > 85: VT (15.0/3.0)
|   |   |   |   |   |   |   |   |   seg-4 > 165: VT (6.0/1.0)
|   |   |   |   |   |   |   |   seg-0 > 135
|   |   |   |   |   |   |   |   |   seg-1 <= 65: VF (10.0/1.0)
|   |   |   |   |   |   |   |   |   seg-1 > 65
|   |   |   |   |   |   |   |   |   |   seg-4 <= 145: VF (3.0/1.0)
|   |   |   |   |   |   |   |   |   |   seg-4 > 145: VT (3.0)
|   |   |   |   |   seg-4 > 225
|   |   |   |   |   |   seg-1 <= 83
|   |   |   |   |   |   |   seg-4 <= 441
|   |   |   |   |   |   |   |   seg-0 <= 195
|   |   |   |   |   |   |   |   |   seg-3 <= 30: AFIB (2.0/1.0)
|   |   |   |   |   |   |   |   |   seg-3 > 30
|   |   |   |   |   |   |   |   |   |   seg-1 <= 65
|   |   |   |   |   |   |   |   |   |   |   seg-4 <= 254
|   |   |   |   |   |   |   |   |   |   |   |   seg-0 <= 74: VF (3.0/1.0)
|   |   |   |   |   |   |   |   |   |   |   |   seg-0 > 74: VT (5.0/1.0)
|   |   |   |   |   |   |   |   |   |   |   seg-4 > 254: VF (3.0)
|   |   |   |   |   |   |   |   |   |   seg-1 > 65: VT (9.0/2.0)
|   |   |   |   |   |   |   |   seg-0 > 195
|   |   |   |   |   |   |   |   |   seg-4 <= 305: VF (5.0)
|   |   |   |   |   |   |   |   |   seg-4 > 305: AFIB (2.0/1.0)
|   |   |   |   |   |   |   seg-4 > 441: N (3.0)
|   |   |   |   |   |   seg-1 > 83
|   |   |   |   |   |   |   seg-4 <= 239: BI (2.0)
|   |   |   |   |   |   |   seg-4 > 239
|   |   |   |   |   |   |   |   seg-3 <= 55
|   |   |   |   |   |   |   |   |   seg-0 <= 80: ASYS (2.0/1.0)
|   |   |   |   |   |   |   |   |   seg-0 > 80: VT (2.0)
|   |   |   |   |   |   |   |   seg-3 > 55
|   |   |   |   |   |   |   |   |   seg-4 <= 275: ASYS (2.0/1.0)
|   |   |   |   |   |   |   |   |   seg-4 > 275: VFL (2.0)
|   |   |   |   seg-3 > 71
|   |   |   |   |   seg-4 <= 205
|   |   |   |   |   |   seg-1 <= 70
|   |   |   |   |   |   |   seg-1 <= 65
|   |   |   |   |   |   |   |   seg-0 <= 144
|   |   |   |   |   |   |   |   |   seg-3 <= 105
|   |   |   |   |   |   |   |   |   |   seg-2 <= 155
|   |   |   |   |   |   |   |   |   |   |   seg-0 <= 125
|   |   |   |   |   |   |   |   |   |   |   |   seg-0 <= 105
|   |   |   |   |   |   |   |   |   |   |   |   |   seg-1 <= 55: VT (35.0/15.0)
|   |   |   |   |   |   |   |   |   |   |   |   |   seg-1 > 55
|   |   |   |   |   |   |   |   |   |   |   |   |   |   seg-2 <= 100
|   |   |   |   |   |   |   |   |   |   |   |   |   |   |   seg-4 <= 130: VFL (3.0)
|   |   |   |   |   |   |   |   |   |   |   |   |   |   |   seg-4 > 130: VF (4.0/2.0)
|   |   |   |   |   |   |   |   |   |   |   |   |   |   seg-2 > 100
|   |   |   |   |   |   |   |   |   |   |   |   |   |   |   seg-2 <= 115: VT (3.0)
|   |   |   |   |   |   |   |   |   |   |   |   |   |   |   seg-2 > 115
|   |   |   |   |   |   |   |   |   |   |   |   |   |   |   |   seg-2 <= 125: VF (2.0)
|   |   |   |   |   |   |   |   |   |   |   |   |   |   |   |   seg-2 > 125
|   |   |   |   |   |   |   |   |   |   |   |   |   |   |   |   |   seg-3 <= 95: VT (2.0)
|   |   |   |   |   |   |   |   |   |   |   |   |   |   |   |   |   seg-3 > 95: VF (4.0/1.0)
|   |   |   |   |   |   |   |   |   |   |   |   seg-0 > 105
|   |   |   |   |   |   |   |   |   |   |   |   |   seg-1 <= 52
|   |   |   |   |   |   |   |   |   |   |   |   |   |   seg-1 <= 43: VF (8.0/1.0)
|   |   |   |   |   |   |   |   |   |   |   |   |   |   seg-1 > 43
|   |   |   |   |   |   |   |   |   |   |   |   |   |   |   seg-3 <= 95: VFL (3.0/1.0)
|   |   |   |   |   |   |   |   |   |   |   |   |   |   |   seg-3 > 95: VF (2.0)
|   |   |   |   |   |   |   |   |   |   |   |   |   seg-1 > 52: N (2.0/1.0)
|   |   |   |   |   |   |   |   |   |   |   seg-0 > 125
|   |   |   |   |   |   |   |   |   |   |   |   seg-1 <= 55
|   |   |   |   |   |   |   |   |   |   |   |   |   seg-2 <= 120: VT (9.0)
|   |   |   |   |   |   |   |   |   |   |   |   |   seg-2 > 120: VF (3.0/1.0)
|   |   |   |   |   |   |   |   |   |   |   |   seg-1 > 55: VF (3.0)
|   |   |   |   |   |   |   |   |   |   seg-2 > 155
|   |   |   |   |   |   |   |   |   |   |   seg-1 <= 55: VT (11.0/3.0)
|   |   |   |   |   |   |   |   |   |   |   seg-1 > 55: VF (4.0/1.0)
|   |   |   |   |   |   |   |   |   seg-3 > 105
|   |   |   |   |   |   |   |   |   |   seg-1 <= 43
|   |   |   |   |   |   |   |   |   |   |   seg-0 <= 65: VF (3.0/1.0)
|   |   |   |   |   |   |   |   |   |   |   seg-0 > 65
|   |   |   |   |   |   |   |   |   |   |   |   seg-0 <= 115: VT (8.0/1.0)
|   |   |   |   |   |   |   |   |   |   |   |   seg-0 > 115: VF (7.0/2.0)
|   |   |   |   |   |   |   |   |   |   seg-1 > 43: VT (38.0/3.0)
|   |   |   |   |   |   |   |   seg-0 > 144
|   |   |   |   |   |   |   |   |   seg-1 <= 38: N (3.0/1.0)
|   |   |   |   |   |   |   |   |   seg-1 > 38
|   |   |   |   |   |   |   |   |   |   seg-4 <= 95
|   |   |   |   |   |   |   |   |   |   |   seg-1 <= 43: AFIB (3.0/1.0)
|   |   |   |   |   |   |   |   |   |   |   seg-1 > 43: ASYS (3.0/2.0)
|   |   |   |   |   |   |   |   |   |   seg-4 > 95
|   |   |   |   |   |   |   |   |   |   |   seg-0 <= 215
|   |   |   |   |   |   |   |   |   |   |   |   seg-1 <= 43
|   |   |   |   |   |   |   |   |   |   |   |   |   seg-3 <= 115
|   |   |   |   |   |   |   |   |   |   |   |   |   |   seg-4 <= 125: VF (2.0)
|   |   |   |   |   |   |   |   |   |   |   |   |   |   seg-4 > 125: VT (4.0/1.0)
|   |   |   |   |   |   |   |   |   |   |   |   |   seg-3 > 115: VT (4.0)
|   |   |   |   |   |   |   |   |   |   |   |   seg-1 > 43
|   |   |   |   |   |   |   |   |   |   |   |   |   seg-3 <= 115
|   |   |   |   |   |   |   |   |   |   |   |   |   |   seg-1 <= 55
|   |   |   |   |   |   |   |   |   |   |   |   |   |   |   seg-3 <= 95: VT (3.0/1.0)
|   |   |   |   |   |   |   |   |   |   |   |   |   |   |   seg-3 > 95
|   |   |   |   |   |   |   |   |   |   |   |   |   |   |   |   seg-2 <= 130: ASYS (4.0/2.0)
|   |   |   |   |   |   |   |   |   |   |   |   |   |   |   |   seg-2 > 130: VF (3.0)
|   |   |   |   |   |   |   |   |   |   |   |   |   |   seg-1 > 55: VT (3.0)
|   |   |   |   |   |   |   |   |   |   |   |   |   seg-3 > 115: VF (3.0/1.0)
|   |   |   |   |   |   |   |   |   |   |   seg-0 > 215: VT (6.0)
|   |   |   |   |   |   |   seg-1 > 65
|   |   |   |   |   |   |   |   seg-4 <= 125
|   |   |   |   |   |   |   |   |   seg-2 <= 65: VT (7.0/1.0)
|   |   |   |   |   |   |   |   |   seg-2 > 65: VF (23.0/10.0)
|   |   |   |   |   |   |   |   seg-4 > 125
|   |   |   |   |   |   |   |   |   seg-0 <= 65: AFIB (3.0/2.0)
|   |   |   |   |   |   |   |   |   seg-0 > 65
|   |   |   |   |   |   |   |   |   |   seg-3 <= 115
|   |   |   |   |   |   |   |   |   |   |   seg-0 <= 105: VT (11.0/2.0)
|   |   |   |   |   |   |   |   |   |   |   seg-0 > 105
|   |   |   |   |   |   |   |   |   |   |   |   seg-0 <= 115: N (2.0)
|   |   |   |   |   |   |   |   |   |   |   |   seg-0 > 115
|   |   |   |   |   |   |   |   |   |   |   |   |   seg-4 <= 135: VT (4.0)
|   |   |   |   |   |   |   |   |   |   |   |   |   seg-4 > 135
|   |   |   |   |   |   |   |   |   |   |   |   |   |   seg-0 <= 155: N (3.0/1.0)
|   |   |   |   |   |   |   |   |   |   |   |   |   |   seg-0 > 155: VT (6.0/2.0)
|   |   |   |   |   |   |   |   |   |   seg-3 > 115
|   |   |   |   |   |   |   |   |   |   |   seg-0 <= 105: VF (3.0/1.0)
|   |   |   |   |   |   |   |   |   |   |   seg-0 > 105: BI (2.0/1.0)
|   |   |   |   |   |   seg-1 > 70
|   |   |   |   |   |   |   seg-2 <= 140
|   |   |   |   |   |   |   |   seg-0 <= 82
|   |   |   |   |   |   |   |   |   seg-1 <= 86: VT (45.0/21.0)
|   |   |   |   |   |   |   |   |   seg-1 > 86
|   |   |   |   |   |   |   |   |   |   seg-2 <= 115
|   |   |   |   |   |   |   |   |   |   |   seg-1 <= 95
|   |   |   |   |   |   |   |   |   |   |   |   seg-2 <= 60: VF (5.0)
|   |   |   |   |   |   |   |   |   |   |   |   seg-2 > 60
|   |   |   |   |   |   |   |   |   |   |   |   |   seg-3 <= 85: VT (13.0/3.0)
|   |   |   |   |   |   |   |   |   |   |   |   |   seg-3 > 85: VF (19.0/7.0)
|   |   |   |   |   |   |   |   |   |   |   seg-1 > 95
|   |   |   |   |   |   |   |   |   |   |   |   seg-4 <= 115
|   |   |   |   |   |   |   |   |   |   |   |   |   seg-0 <= 74
|   |   |   |   |   |   |   |   |   |   |   |   |   |   seg-0 <= 54: VT (6.0/1.0)
|   |   |   |   |   |   |   |   |   |   |   |   |   |   seg-0 > 54: VF (3.0)
|   |   |   |   |   |   |   |   |   |   |   |   |   seg-0 > 74: VT (4.0/1.0)
|   |   |   |   |   |   |   |   |   |   |   |   seg-4 > 115
|   |   |   |   |   |   |   |   |   |   |   |   |   seg-4 <= 165
|   |   |   |   |   |   |   |   |   |   |   |   |   |   seg-0 <= 65: VFL (4.0)
|   |   |   |   |   |   |   |   |   |   |   |   |   |   seg-0 > 65: VT (3.0/1.0)
|   |   |   |   |   |   |   |   |   |   |   |   |   seg-4 > 165: VF (2.0)
|   |   |   |   |   |   |   |   |   |   seg-2 > 115: VT (11.0/3.0)
|   |   |   |   |   |   |   |   seg-0 > 82
|   |   |   |   |   |   |   |   |   seg-0 <= 128
|   |   |   |   |   |   |   |   |   |   seg-0 <= 109
|   |   |   |   |   |   |   |   |   |   |   seg-2 <= 100
|   |   |   |   |   |   |   |   |   |   |   |   seg-2 <= 60
|   |   |   |   |   |   |   |   |   |   |   |   |   seg-0 <= 95: VT (10.0/3.0)
|   |   |   |   |   |   |   |   |   |   |   |   |   seg-0 > 95: VF (6.0/2.0)
|   |   |   |   |   |   |   |   |   |   |   |   seg-2 > 60
|   |   |   |   |   |   |   |   |   |   |   |   |   seg-4 <= 91
|   |   |   |   |   |   |   |   |   |   |   |   |   |   seg-1 <= 95
|   |   |   |   |   |   |   |   |   |   |   |   |   |   |   seg-3 <= 91: VT (37.0/15.0)
|   |   |   |   |   |   |   |   |   |   |   |   |   |   |   seg-3 > 91
|   |   |   |   |   |   |   |   |   |   |   |   |   |   |   |   seg-2 <= 89: N (2.0)
|   |   |   |   |   |   |   |   |   |   |   |   |   |   |   |   seg-2 > 89
|   |   |   |   |   |   |   |   |   |   |   |   |   |   |   |   |   seg-0 <= 95
|   |   |   |   |   |   |   |   |   |   |   |   |   |   |   |   |   |   seg-3 <= 110: AFIB (2.0/1.0)
|   |   |   |   |   |   |   |   |   |   |   |   |   |   |   |   |   |   seg-3 > 110: VF (2.0)
|   |   |   |   |   |   |   |   |   |   |   |   |   |   |   |   |   seg-0 > 95
|   |   |   |   |   |   |   |   |   |   |   |   |   |   |   |   |   |   seg-2 <= 95: VT (2.0)
|   |   |   |   |   |   |   |   |   |   |   |   |   |   |   |   |   |   seg-2 > 95: N (2.0/1.0)
|   |   |   |   |   |   |   |   |   |   |   |   |   |   seg-1 > 95: AFIB (3.0/1.0)
|   |   |   |   |   |   |   |   |   |   |   |   |   seg-4 > 91
|   |   |   |   |   |   |   |   |   |   |   |   |   |   seg-1 <= 98
|   |   |   |   |   |   |   |   |   |   |   |   |   |   |   seg-2 <= 88: N (10.0/2.0)
|   |   |   |   |   |   |   |   |   |   |   |   |   |   |   seg-2 > 88
|   |   |   |   |   |   |   |   |   |   |   |   |   |   |   |   seg-2 <= 94
|   |   |   |   |   |   |   |   |   |   |   |   |   |   |   |   |   seg-4 <= 125: N (10.0/6.0)
|   |   |   |   |   |   |   |   |   |   |   |   |   |   |   |   |   seg-4 > 125: VF (6.0/1.0)
|   |   |   |   |   |   |   |   |   |   |   |   |   |   |   |   seg-2 > 94: N (13.0/6.0)
|   |   |   |   |   |   |   |   |   |   |   |   |   |   seg-1 > 98
|   |   |   |   |   |   |   |   |   |   |   |   |   |   |   seg-2 <= 95
|   |   |   |   |   |   |   |   |   |   |   |   |   |   |   |   seg-0 <= 95
|   |   |   |   |   |   |   |   |   |   |   |   |   |   |   |   |   seg-2 <= 85: N (3.0/1.0)
|   |   |   |   |   |   |   |   |   |   |   |   |   |   |   |   |   seg-2 > 85
|   |   |   |   |   |   |   |   |   |   |   |   |   |   |   |   |   |   seg-4 <= 125: AFIB (4.0/1.0)
|   |   |   |   |   |   |   |   |   |   |   |   |   |   |   |   |   |   seg-4 > 125: N (2.0/1.0)
|   |   |   |   |   |   |   |   |   |   |   |   |   |   |   |   seg-0 > 95
|   |   |   |   |   |   |   |   |   |   |   |   |   |   |   |   |   seg-4 <= 130: VT (3.0/1.0)
|   |   |   |   |   |   |   |   |   |   |   |   |   |   |   |   |   seg-4 > 130: AFIB (2.0/1.0)
|   |   |   |   |   |   |   |   |   |   |   |   |   |   |   seg-2 > 95: VT (6.0)
|   |   |   |   |   |   |   |   |   |   |   seg-2 > 100
|   |   |   |   |   |   |   |   |   |   |   |   seg-3 <= 81: SVTA (3.0/2.0)
|   |   |   |   |   |   |   |   |   |   |   |   seg-3 > 81
|   |   |   |   |   |   |   |   |   |   |   |   |   seg-3 <= 117
|   |   |   |   |   |   |   |   |   |   |   |   |   |   seg-4 <= 98: N (10.0/2.0)
|   |   |   |   |   |   |   |   |   |   |   |   |   |   seg-4 > 98
|   |   |   |   |   |   |   |   |   |   |   |   |   |   |   seg-2 <= 135
|   |   |   |   |   |   |   |   |   |   |   |   |   |   |   |   seg-0 <= 95
|   |   |   |   |   |   |   |   |   |   |   |   |   |   |   |   |   seg-3 <= 105: N (10.0/3.0)
|   |   |   |   |   |   |   |   |   |   |   |   |   |   |   |   |   seg-3 > 105: AFIB (2.0/1.0)
|   |   |   |   |   |   |   |   |   |   |   |   |   |   |   |   seg-0 > 95
|   |   |   |   |   |   |   |   |   |   |   |   |   |   |   |   |   seg-3 <= 105: AFIB (5.0/3.0)
|   |   |   |   |   |   |   |   |   |   |   |   |   |   |   |   |   seg-3 > 105
|   |   |   |   |   |   |   |   |   |   |   |   |   |   |   |   |   |   seg-1 <= 95: SVTA (2.0)
|   |   |   |   |   |   |   |   |   |   |   |   |   |   |   |   |   |   seg-1 > 95: N (2.0)
|   |   |   |   |   |   |   |   |   |   |   |   |   |   |   seg-2 > 135: AFIB (2.0/1.0)
|   |   |   |   |   |   |   |   |   |   |   |   |   seg-3 > 117
|   |   |   |   |   |   |   |   |   |   |   |   |   |   seg-0 <= 95: N (2.0/1.0)
|   |   |   |   |   |   |   |   |   |   |   |   |   |   seg-0 > 95: AFIB (3.0)
|   |   |   |   |   |   |   |   |   |   seg-0 > 109
|   |   |   |   |   |   |   |   |   |   |   seg-3 <= 96
|   |   |   |   |   |   |   |   |   |   |   |   seg-2 <= 65: VT (6.0/1.0)
|   |   |   |   |   |   |   |   |   |   |   |   seg-2 > 65
|   |   |   |   |   |   |   |   |   |   |   |   |   seg-3 <= 84
|   |   |   |   |   |   |   |   |   |   |   |   |   |   seg-1 <= 95
|   |   |   |   |   |   |   |   |   |   |   |   |   |   |   seg-4 <= 105: VT (5.0/1.0)
|   |   |   |   |   |   |   |   |   |   |   |   |   |   |   seg-4 > 105: VF (3.0/1.0)
|   |   |   |   |   |   |   |   |   |   |   |   |   |   seg-1 > 95: N (2.0/1.0)
|   |   |   |   |   |   |   |   |   |   |   |   |   seg-3 > 84: N (18.0/9.0)
|   |   |   |   |   |   |   |   |   |   |   seg-3 > 96
|   |   |   |   |   |   |   |   |   |   |   |   seg-1 <= 97
|   |   |   |   |   |   |   |   |   |   |   |   |   seg-4 <= 115
|   |   |   |   |   |   |   |   |   |   |   |   |   |   seg-2 <= 85
|   |   |   |   |   |   |   |   |   |   |   |   |   |   |   seg-3 <= 115: N (3.0/1.0)
|   |   |   |   |   |   |   |   |   |   |   |   |   |   |   seg-3 > 115: VT (3.0/1.0)
|   |   |   |   |   |   |   |   |   |   |   |   |   |   seg-2 > 85: AFIB (10.0/4.0)
|   |   |   |   |   |   |   |   |   |   |   |   |   seg-4 > 115
|   |   |   |   |   |   |   |   |   |   |   |   |   |   seg-0 <= 115: N (3.0/1.0)
|   |   |   |   |   |   |   |   |   |   |   |   |   |   seg-0 > 115: VT (9.0/3.0)
|   |   |   |   |   |   |   |   |   |   |   |   seg-1 > 97
|   |   |   |   |   |   |   |   |   |   |   |   |   seg-3 <= 115
|   |   |   |   |   |   |   |   |   |   |   |   |   |   seg-4 <= 130: VT (58.0/7.0)
|   |   |   |   |   |   |   |   |   |   |   |   |   |   seg-4 > 130: N (3.0/1.0)
|   |   |   |   |   |   |   |   |   |   |   |   |   seg-3 > 115
|   |   |   |   |   |   |   |   |   |   |   |   |   |   seg-4 <= 105: N (4.0/1.0)
|   |   |   |   |   |   |   |   |   |   |   |   |   |   seg-4 > 105: VT (3.0/1.0)
|   |   |   |   |   |   |   |   |   seg-0 > 128
|   |   |   |   |   |   |   |   |   |   seg-2 <= 129
|   |   |   |   |   |   |   |   |   |   |   seg-2 <= 55: VT (6.0/1.0)
|   |   |   |   |   |   |   |   |   |   |   seg-2 > 55
|   |   |   |   |   |   |   |   |   |   |   |   seg-4 <= 155
|   |   |   |   |   |   |   |   |   |   |   |   |   seg-4 <= 145
|   |   |   |   |   |   |   |   |   |   |   |   |   |   seg-1 <= 89
|   |   |   |   |   |   |   |   |   |   |   |   |   |   |   seg-1 <= 78: N (2.0)
|   |   |   |   |   |   |   |   |   |   |   |   |   |   |   seg-1 > 78
|   |   |   |   |   |   |   |   |   |   |   |   |   |   |   |   seg-4 <= 125
|   |   |   |   |   |   |   |   |   |   |   |   |   |   |   |   |   seg-0 <= 135
|   |   |   |   |   |   |   |   |   |   |   |   |   |   |   |   |   |   seg-3 <= 95: ASYS (2.0/1.0)
|   |   |   |   |   |   |   |   |   |   |   |   |   |   |   |   |   |   seg-3 > 95
|   |   |   |   |   |   |   |   |   |   |   |   |   |   |   |   |   |   |   seg-3 <= 115: N (2.0)
|   |   |   |   |   |   |   |   |   |   |   |   |   |   |   |   |   |   |   seg-3 > 115: VF (2.0)
|   |   |   |   |   |   |   |   |   |   |   |   |   |   |   |   |   seg-0 > 135: VT (7.0/3.0)
|   |   |   |   |   |   |   |   |   |   |   |   |   |   |   |   seg-4 > 125: N (7.0/3.0)
|   |   |   |   |   |   |   |   |   |   |   |   |   |   seg-1 > 89
|   |   |   |   |   |   |   |   |   |   |   |   |   |   |   seg-3 <= 115
|   |   |   |   |   |   |   |   |   |   |   |   |   |   |   |   seg-1 <= 95
|   |   |   |   |   |   |   |   |   |   |   |   |   |   |   |   |   seg-0 <= 135
|   |   |   |   |   |   |   |   |   |   |   |   |   |   |   |   |   |   seg-3 <= 95: AFIB (2.0)
|   |   |   |   |   |   |   |   |   |   |   |   |   |   |   |   |   |   seg-3 > 95: VF (2.0)
|   |   |   |   |   |   |   |   |   |   |   |   |   |   |   |   |   seg-0 > 135
|   |   |   |   |   |   |   |   |   |   |   |   |   |   |   |   |   |   seg-2 <= 95: VT (3.0)
|   |   |   |   |   |   |   |   |   |   |   |   |   |   |   |   |   |   seg-2 > 95
|   |   |   |   |   |   |   |   |   |   |   |   |   |   |   |   |   |   |   seg-3 <= 95: VF (2.0/1.0)
|   |   |   |   |   |   |   |   |   |   |   |   |   |   |   |   |   |   |   seg-3 > 95: VFL (5.0/1.0)
|   |   |   |   |   |   |   |   |   |   |   |   |   |   |   |   seg-1 > 95
|   |   |   |   |   |   |   |   |   |   |   |   |   |   |   |   |   seg-0 <= 155
|   |   |   |   |   |   |   |   |   |   |   |   |   |   |   |   |   |   seg-2 <= 85: VF (2.0/1.0)
|   |   |   |   |   |   |   |   |   |   |   |   |   |   |   |   |   |   seg-2 > 85
|   |   |   |   |   |   |   |   |   |   |   |   |   |   |   |   |   |   |   seg-3 <= 85: AFIB (2.0/1.0)
|   |   |   |   |   |   |   |   |   |   |   |   |   |   |   |   |   |   |   seg-3 > 85: N (10.0/4.0)
|   |   |   |   |   |   |   |   |   |   |   |   |   |   |   |   |   seg-0 > 155: VF (2.0/1.0)
|   |   |   |   |   |   |   |   |   |   |   |   |   |   |   seg-3 > 115
|   |   |   |   |   |   |   |   |   |   |   |   |   |   |   |   seg-2 <= 105: N (3.0)
|   |   |   |   |   |   |   |   |   |   |   |   |   |   |   |   seg-2 > 105
|   |   |   |   |   |   |   |   |   |   |   |   |   |   |   |   |   seg-1 <= 95: AFIB (2.0/1.0)
|   |   |   |   |   |   |   |   |   |   |   |   |   |   |   |   |   seg-1 > 95: VT (3.0/1.0)
|   |   |   |   |   |   |   |   |   |   |   |   |   seg-4 > 145: VT (6.0/1.0)
|   |   |   |   |   |   |   |   |   |   |   |   seg-4 > 155: VFL (7.0/3.0)
|   |   |   |   |   |   |   |   |   |   seg-2 > 129
|   |   |   |   |   |   |   |   |   |   |   seg-3 <= 105: VF (8.0/2.0)
|   |   |   |   |   |   |   |   |   |   |   seg-3 > 105: AFIB (3.0/2.0)
|   |   |   |   |   |   |   seg-2 > 140
|   |   |   |   |   |   |   |   seg-3 <= 115
|   |   |   |   |   |   |   |   |   seg-2 <= 228
|   |   |   |   |   |   |   |   |   |   seg-0 <= 93
|   |   |   |   |   |   |   |   |   |   |   seg-2 <= 155
|   |   |   |   |   |   |   |   |   |   |   |   seg-4 <= 125: N (3.0/1.0)
|   |   |   |   |   |   |   |   |   |   |   |   seg-4 > 125: VT (3.0)
|   |   |   |   |   |   |   |   |   |   |   seg-2 > 155
|   |   |   |   |   |   |   |   |   |   |   |   seg-0 <= 85: VF (7.0/1.0)
|   |   |   |   |   |   |   |   |   |   |   |   seg-0 > 85
|   |   |   |   |   |   |   |   |   |   |   |   |   seg-3 <= 95: VF (2.0/1.0)
|   |   |   |   |   |   |   |   |   |   |   |   |   seg-3 > 95: N (3.0/1.0)
|   |   |   |   |   |   |   |   |   |   seg-0 > 93
|   |   |   |   |   |   |   |   |   |   |   seg-3 <= 105: N (25.0/4.0)
|   |   |   |   |   |   |   |   |   |   |   seg-3 > 105
|   |   |   |   |   |   |   |   |   |   |   |   seg-2 <= 155: N (3.0/1.0)
|   |   |   |   |   |   |   |   |   |   |   |   seg-2 > 155: VT (4.0/1.0)
|   |   |   |   |   |   |   |   |   seg-2 > 228
|   |   |   |   |   |   |   |   |   |   seg-3 <= 105: VF (6.0/2.0)
|   |   |   |   |   |   |   |   |   |   seg-3 > 105: BI (2.0/1.0)
|   |   |   |   |   |   |   |   seg-3 > 115
|   |   |   |   |   |   |   |   |   seg-0 <= 100: ASYS (2.0/1.0)
|   |   |   |   |   |   |   |   |   seg-0 > 100: BI (6.0/1.0)
|   |   |   |   |   seg-4 > 205
|   |   |   |   |   |   seg-2 <= 125
|   |   |   |   |   |   |   seg-1 <= 65
|   |   |   |   |   |   |   |   seg-3 <= 115
|   |   |   |   |   |   |   |   |   seg-4 <= 280: ASYS (3.0/1.0)
|   |   |   |   |   |   |   |   |   seg-4 > 280: VT (2.0)
|   |   |   |   |   |   |   |   seg-3 > 115: N (2.0)
|   |   |   |   |   |   |   seg-1 > 65
|   |   |   |   |   |   |   |   seg-2 <= 75: VF (4.0/2.0)
|   |   |   |   |   |   |   |   seg-2 > 75
|   |   |   |   |   |   |   |   |   seg-2 <= 95
|   |   |   |   |   |   |   |   |   |   seg-0 <= 65: N (2.0/1.0)
|   |   |   |   |   |   |   |   |   |   seg-0 > 65
|   |   |   |   |   |   |   |   |   |   |   seg-3 <= 89: N (4.0/1.0)
|   |   |   |   |   |   |   |   |   |   |   seg-3 > 89: HGEA (8.0)
|   |   |   |   |   |   |   |   |   seg-2 > 95
|   |   |   |   |   |   |   |   |   |   seg-3 <= 95: HGEA (2.0/1.0)
|   |   |   |   |   |   |   |   |   |   seg-3 > 95: VT (3.0)
|   |   |   |   |   |   seg-2 > 125
|   |   |   |   |   |   |   seg-0 <= 74: VFL (4.0/1.0)
|   |   |   |   |   |   |   seg-0 > 74
|   |   |   |   |   |   |   |   seg-2 <= 205: N (18.0/6.0)
|   |   |   |   |   |   |   |   seg-2 > 205
|   |   |   |   |   |   |   |   |   seg-3 <= 91: VF (3.0/1.0)
|   |   |   |   |   |   |   |   |   seg-3 > 91
|   |   |   |   |   |   |   |   |   |   seg-4 <= 230: VT (3.0)
|   |   |   |   |   |   |   |   |   |   seg-4 > 230: N (2.0)
|   |   |   seg-1 > 100
|   |   |   |   seg-2 <= 111
|   |   |   |   |   seg-0 <= 95
|   |   |   |   |   |   seg-3 <= 46
|   |   |   |   |   |   |   seg-0 <= 54: VF (2.0)
|   |   |   |   |   |   |   seg-0 > 54: BI (2.0/1.0)
|   |   |   |   |   |   seg-3 > 46
|   |   |   |   |   |   |   seg-0 <= 74
|   |   |   |   |   |   |   |   seg-4 <= 125: VT (14.0/3.0)
|   |   |   |   |   |   |   |   seg-4 > 125
|   |   |   |   |   |   |   |   |   seg-3 <= 60: VT (3.0)
|   |   |   |   |   |   |   |   |   seg-3 > 60: ASYS (6.0/3.0)
|   |   |   |   |   |   |   seg-0 > 74
|   |   |   |   |   |   |   |   seg-4 <= 100: AFIB (6.0/4.0)
|   |   |   |   |   |   |   |   seg-4 > 100: VT (12.0/5.0)
|   |   |   |   |   seg-0 > 95
|   |   |   |   |   |   seg-4 <= 99
|   |   |   |   |   |   |   seg-2 <= 75
|   |   |   |   |   |   |   |   seg-2 <= 65: VT (2.0)
|   |   |   |   |   |   |   |   seg-2 > 65: VF (2.0/1.0)
|   |   |   |   |   |   |   seg-2 > 75
|   |   |   |   |   |   |   |   seg-2 <= 98: N (8.0)
|   |   |   |   |   |   |   |   seg-2 > 98
|   |   |   |   |   |   |   |   |   seg-3 <= 95: SVTA (3.0/1.0)
|   |   |   |   |   |   |   |   |   seg-3 > 95: AFIB (4.0/2.0)
|   |   |   |   |   |   seg-4 > 99
|   |   |   |   |   |   |   seg-2 <= 96
|   |   |   |   |   |   |   |   seg-2 <= 85: VT (21.0/6.0)
|   |   |   |   |   |   |   |   seg-2 > 85
|   |   |   |   |   |   |   |   |   seg-0 <= 105: AFIB (4.0/1.0)
|   |   |   |   |   |   |   |   |   seg-0 > 105: N (7.0/1.0)
|   |   |   |   |   |   |   seg-2 > 96: VT (344.0/37.0)
|   |   |   |   seg-2 > 111
|   |   |   |   |   seg-3 <= 85
|   |   |   |   |   |   seg-3 <= 75
|   |   |   |   |   |   |   seg-2 <= 135
|   |   |   |   |   |   |   |   seg-4 <= 105: ASYS (2.0)
|   |   |   |   |   |   |   |   seg-4 > 105
|   |   |   |   |   |   |   |   |   seg-0 <= 60: N (2.0/1.0)
|   |   |   |   |   |   |   |   |   seg-0 > 60: VT (2.0)
|   |   |   |   |   |   |   seg-2 > 135
|   |   |   |   |   |   |   |   seg-4 <= 120: VT (4.0/1.0)
|   |   |   |   |   |   |   |   seg-4 > 120: VF (5.0/1.0)
|   |   |   |   |   |   seg-3 > 75: N (3.0/1.0)
|   |   |   |   |   seg-3 > 85
|   |   |   |   |   |   seg-4 <= 112
|   |   |   |   |   |   |   seg-4 <= 96
|   |   |   |   |   |   |   |   seg-3 <= 95: VF (2.0)
|   |   |   |   |   |   |   |   seg-3 > 95: N (3.0)
|   |   |   |   |   |   |   seg-4 > 96
|   |   |   |   |   |   |   |   seg-3 <= 95: N (2.0)
|   |   |   |   |   |   |   |   seg-3 > 95
|   |   |   |   |   |   |   |   |   seg-0 <= 115: VT (14.0/2.0)
|   |   |   |   |   |   |   |   |   seg-0 > 115: N (4.0/1.0)
|   |   |   |   |   |   seg-4 > 112
|   |   |   |   |   |   |   seg-0 <= 213: N (36.0/9.0)
|   |   |   |   |   |   |   seg-0 > 213: VT (3.0)
|   seg-1 > 110
|   |   seg-2 <= 90
|   |   |   seg-0 <= 120
|   |   |   |   seg-0 <= 84
|   |   |   |   |   seg-4 <= 54
|   |   |   |   |   |   seg-1 <= 260
|   |   |   |   |   |   |   seg-3 <= 115: VF (25.0/10.0)
|   |   |   |   |   |   |   seg-3 > 115: VT (3.0)
|   |   |   |   |   |   seg-1 > 260: VT (3.0/1.0)
|   |   |   |   |   seg-4 > 54
|   |   |   |   |   |   seg-0 <= 54
|   |   |   |   |   |   |   seg-0 <= 33
|   |   |   |   |   |   |   |   seg-1 <= 165: VT (4.0/1.0)
|   |   |   |   |   |   |   |   seg-1 > 165: ASYS (2.0/1.0)
|   |   |   |   |   |   |   seg-0 > 33
|   |   |   |   |   |   |   |   seg-4 <= 155
|   |   |   |   |   |   |   |   |   seg-1 <= 205
|   |   |   |   |   |   |   |   |   |   seg-0 <= 45
|   |   |   |   |   |   |   |   |   |   |   seg-2 <= 85
|   |   |   |   |   |   |   |   |   |   |   |   seg-4 <= 75: VT (6.0)
|   |   |   |   |   |   |   |   |   |   |   |   seg-4 > 75
|   |   |   |   |   |   |   |   |   |   |   |   |   seg-3 <= 95
|   |   |   |   |   |   |   |   |   |   |   |   |   |   seg-1 <= 125: VT (3.0/1.0)
|   |   |   |   |   |   |   |   |   |   |   |   |   |   seg-1 > 125: VF (15.0/2.0)
|   |   |   |   |   |   |   |   |   |   |   |   |   seg-3 > 95: VT (2.0)
|   |   |   |   |   |   |   |   |   |   |   seg-2 > 85: VT (6.0/1.0)
|   |   |   |   |   |   |   |   |   |   seg-0 > 45
|   |   |   |   |   |   |   |   |   |   |   seg-3 <= 115: VT (26.0/7.0)
|   |   |   |   |   |   |   |   |   |   |   seg-3 > 115: VF (3.0)
|   |   |   |   |   |   |   |   |   seg-1 > 205: VFL (2.0/1.0)
|   |   |   |   |   |   |   |   seg-4 > 155
|   |   |   |   |   |   |   |   |   seg-0 <= 45
|   |   |   |   |   |   |   |   |   |   seg-1 <= 145: VFL (3.0/1.0)
|   |   |   |   |   |   |   |   |   |   seg-1 > 145: VT (3.0)
|   |   |   |   |   |   |   |   |   seg-0 > 45: VF (3.0/1.0)
|   |   |   |   |   |   seg-0 > 54: VT (105.0/47.0)
|   |   |   |   seg-0 > 84
|   |   |   |   |   seg-2 <= 85
|   |   |   |   |   |   seg-1 <= 200
|   |   |   |   |   |   |   seg-2 <= 37
|   |   |   |   |   |   |   |   seg-0 <= 105: ASYS (3.0/2.0)
|   |   |   |   |   |   |   |   seg-0 > 105: VFL (5.0/2.0)
|   |   |   |   |   |   |   seg-2 > 37
|   |   |   |   |   |   |   |   seg-4 <= 95
|   |   |   |   |   |   |   |   |   seg-1 <= 165
|   |   |   |   |   |   |   |   |   |   seg-4 <= 63
|   |   |   |   |   |   |   |   |   |   |   seg-1 <= 135: VT (7.0/1.0)
|   |   |   |   |   |   |   |   |   |   |   seg-1 > 135: VF (10.0/3.0)
|   |   |   |   |   |   |   |   |   |   seg-4 > 63: VF (34.0/15.0)
|   |   |   |   |   |   |   |   |   seg-1 > 165
|   |   |   |   |   |   |   |   |   |   seg-2 <= 60: VT (4.0/1.0)
|   |   |   |   |   |   |   |   |   |   seg-2 > 60: ASYS (2.0/1.0)
|   |   |   |   |   |   |   |   seg-4 > 95
|   |   |   |   |   |   |   |   |   seg-2 <= 43
|   |   |   |   |   |   |   |   |   |   seg-1 <= 165: ASYS (5.0/2.0)
|   |   |   |   |   |   |   |   |   |   seg-1 > 165
|   |   |   |   |   |   |   |   |   |   |   seg-3 <= 60: N (2.0/1.0)
|   |   |   |   |   |   |   |   |   |   |   seg-3 > 60: VT (3.0)
|   |   |   |   |   |   |   |   |   seg-2 > 43
|   |   |   |   |   |   |   |   |   |   seg-4 <= 135: VT (22.0/10.0)
|   |   |   |   |   |   |   |   |   |   seg-4 > 135
|   |   |   |   |   |   |   |   |   |   |   seg-2 <= 60: VF (5.0)
|   |   |   |   |   |   |   |   |   |   |   seg-2 > 60
|   |   |   |   |   |   |   |   |   |   |   |   seg-0 <= 115: VT (6.0/3.0)
|   |   |   |   |   |   |   |   |   |   |   |   seg-0 > 115: VF (2.0)
|   |   |   |   |   |   seg-1 > 200
|   |   |   |   |   |   |   seg-3 <= 105: VT (7.0/2.0)
|   |   |   |   |   |   |   seg-3 > 105: AFIB (3.0/2.0)
|   |   |   |   |   seg-2 > 85
|   |   |   |   |   |   seg-4 <= 95
|   |   |   |   |   |   |   seg-4 <= 70
|   |   |   |   |   |   |   |   seg-1 <= 130: VF (2.0)
|   |   |   |   |   |   |   |   seg-1 > 130: ASYS (3.0/1.0)
|   |   |   |   |   |   |   seg-4 > 70: VF (13.0/3.0)
|   |   |   |   |   |   seg-4 > 95
|   |   |   |   |   |   |   seg-3 <= 60
|   |   |   |   |   |   |   |   seg-0 <= 100: VF (2.0)
|   |   |   |   |   |   |   |   seg-0 > 100: VFL (2.0/1.0)
|   |   |   |   |   |   |   seg-3 > 60
|   |   |   |   |   |   |   |   seg-4 <= 160
|   |   |   |   |   |   |   |   |   seg-0 <= 95: VT (4.0/2.0)
|   |   |   |   |   |   |   |   |   seg-0 > 95: N (10.0/2.0)
|   |   |   |   |   |   |   |   seg-4 > 160: VT (2.0)
|   |   |   seg-0 > 120
|   |   |   |   seg-0 <= 244
|   |   |   |   |   seg-2 <= 51
|   |   |   |   |   |   seg-2 <= 43
|   |   |   |   |   |   |   seg-4 <= 190
|   |   |   |   |   |   |   |   seg-2 <= 37: N (2.0/1.0)
|   |   |   |   |   |   |   |   seg-2 > 37
|   |   |   |   |   |   |   |   |   seg-1 <= 205
|   |   |   |   |   |   |   |   |   |   seg-3 <= 115
|   |   |   |   |   |   |   |   |   |   |   seg-1 <= 145
|   |   |   |   |   |   |   |   |   |   |   |   seg-3 <= 87: N (3.0/1.0)
|   |   |   |   |   |   |   |   |   |   |   |   seg-3 > 87: VF (2.0)
|   |   |   |   |   |   |   |   |   |   |   seg-1 > 145
|   |   |   |   |   |   |   |   |   |   |   |   seg-4 <= 70: VF (2.0)
|   |   |   |   |   |   |   |   |   |   |   |   seg-4 > 70: VT (6.0/2.0)
|   |   |   |   |   |   |   |   |   |   seg-3 > 115: N (3.0/1.0)
|   |   |   |   |   |   |   |   |   seg-1 > 205: N (2.0)
|   |   |   |   |   |   |   seg-4 > 190: VFL (2.0/1.0)
|   |   |   |   |   |   seg-2 > 43
|   |   |   |   |   |   |   seg-4 <= 135
|   |   |   |   |   |   |   |   seg-1 <= 155: VF (12.0/4.0)
|   |   |   |   |   |   |   |   seg-1 > 155
|   |   |   |   |   |   |   |   |   seg-0 <= 155: VFL (2.0)
|   |   |   |   |   |   |   |   |   seg-0 > 155: VT (3.0/1.0)
|   |   |   |   |   |   |   seg-4 > 135: ASYS (4.0/2.0)
|   |   |   |   |   seg-2 > 51
|   |   |   |   |   |   seg-3 <= 89
|   |   |   |   |   |   |   seg-1 <= 195
|   |   |   |   |   |   |   |   seg-3 <= 42: VF (10.0/5.0)
|   |   |   |   |   |   |   |   seg-3 > 42
|   |   |   |   |   |   |   |   |   seg-4 <= 105
|   |   |   |   |   |   |   |   |   |   seg-0 <= 155
|   |   |   |   |   |   |   |   |   |   |   seg-0 <= 133
|   |   |   |   |   |   |   |   |   |   |   |   seg-1 <= 125: VF (2.0/1.0)
|   |   |   |   |   |   |   |   |   |   |   |   seg-1 > 125: VT (8.0/3.0)
|   |   |   |   |   |   |   |   |   |   |   seg-0 > 133
|   |   |   |   |   |   |   |   |   |   |   |   seg-3 <= 60: VT (3.0/1.0)
|   |   |   |   |   |   |   |   |   |   |   |   seg-3 > 60: N (5.0/1.0)
|   |   |   |   |   |   |   |   |   |   seg-0 > 155
|   |   |   |   |   |   |   |   |   |   |   seg-3 <= 75: VFL (4.0/1.0)
|   |   |   |   |   |   |   |   |   |   |   seg-3 > 75: VF (4.0/1.0)
|   |   |   |   |   |   |   |   |   seg-4 > 105
|   |   |   |   |   |   |   |   |   |   seg-1 <= 155
|   |   |   |   |   |   |   |   |   |   |   seg-3 <= 79
|   |   |   |   |   |   |   |   |   |   |   |   seg-3 <= 60
|   |   |   |   |   |   |   |   |   |   |   |   |   seg-2 <= 84: VT (6.0/1.0)
|   |   |   |   |   |   |   |   |   |   |   |   |   seg-2 > 84: N (2.0)
|   |   |   |   |   |   |   |   |   |   |   |   seg-3 > 60: N (9.0/2.0)
|   |   |   |   |   |   |   |   |   |   |   seg-3 > 79
|   |   |   |   |   |   |   |   |   |   |   |   seg-2 <= 80: N (2.0)
|   |   |   |   |   |   |   |   |   |   |   |   seg-2 > 80: VT (3.0/1.0)
|   |   |   |   |   |   |   |   |   |   seg-1 > 155: VT (5.0/1.0)
|   |   |   |   |   |   |   seg-1 > 195
|   |   |   |   |   |   |   |   seg-1 <= 208: BI (2.0/1.0)
|   |   |   |   |   |   |   |   seg-1 > 208
|   |   |   |   |   |   |   |   |   seg-1 <= 240: VFL (2.0)
|   |   |   |   |   |   |   |   |   seg-1 > 240: VF (2.0/1.0)
|   |   |   |   |   |   seg-3 > 89
|   |   |   |   |   |   |   seg-4 <= 63
|   |   |   |   |   |   |   |   seg-2 <= 65: VFL (2.0/1.0)
|   |   |   |   |   |   |   |   seg-2 > 65: VF (6.0/2.0)
|   |   |   |   |   |   |   seg-4 > 63
|   |   |   |   |   |   |   |   seg-1 <= 129
|   |   |   |   |   |   |   |   |   seg-0 <= 151: BI (7.0/3.0)
|   |   |   |   |   |   |   |   |   seg-0 > 151: VF (3.0/1.0)
|   |   |   |   |   |   |   |   seg-1 > 129
|   |   |   |   |   |   |   |   |   seg-3 <= 95
|   |   |   |   |   |   |   |   |   |   seg-4 <= 165
|   |   |   |   |   |   |   |   |   |   |   seg-2 <= 85: HGEA (4.0/2.0)
|   |   |   |   |   |   |   |   |   |   |   seg-2 > 85: N (5.0/1.0)
|   |   |   |   |   |   |   |   |   |   seg-4 > 165: VFL (2.0/1.0)
|   |   |   |   |   |   |   |   |   seg-3 > 95
|   |   |   |   |   |   |   |   |   |   seg-0 <= 145
|   |   |   |   |   |   |   |   |   |   |   seg-1 <= 134: VT (3.0/1.0)
|   |   |   |   |   |   |   |   |   |   |   seg-1 > 134
|   |   |   |   |   |   |   |   |   |   |   |   seg-4 <= 100: BI (3.0/1.0)
|   |   |   |   |   |   |   |   |   |   |   |   seg-4 > 100: VT (3.0/1.0)
|   |   |   |   |   |   |   |   |   |   seg-0 > 145
|   |   |   |   |   |   |   |   |   |   |   seg-2 <= 75: VT (3.0/1.0)
|   |   |   |   |   |   |   |   |   |   |   seg-2 > 75: VFL (7.0/1.0)
|   |   |   |   seg-0 > 244
|   |   |   |   |   seg-2 <= 70
|   |   |   |   |   |   seg-0 <= 355
|   |   |   |   |   |   |   seg-4 <= 125: VT (4.0)
|   |   |   |   |   |   |   seg-4 > 125: ASYS (2.0)
|   |   |   |   |   |   seg-0 > 355: VF (5.0/1.0)
|   |   |   |   |   seg-2 > 70
|   |   |   |   |   |   seg-3 <= 81: HGEA (7.0/2.0)
|   |   |   |   |   |   seg-3 > 81
|   |   |   |   |   |   |   seg-0 <= 346: N (2.0)
|   |   |   |   |   |   |   seg-0 > 346: VT (3.0/1.0)
|   |   seg-2 > 90
|   |   |   seg-2 <= 165
|   |   |   |   seg-3 <= 72
|   |   |   |   |   seg-4 <= 155
|   |   |   |   |   |   seg-1 <= 195
|   |   |   |   |   |   |   seg-4 <= 125
|   |   |   |   |   |   |   |   seg-0 <= 115
|   |   |   |   |   |   |   |   |   seg-0 <= 95
|   |   |   |   |   |   |   |   |   |   seg-4 <= 75: VT (24.0/7.0)
|   |   |   |   |   |   |   |   |   |   seg-4 > 75
|   |   |   |   |   |   |   |   |   |   |   seg-1 <= 125: VF (7.0/3.0)
|   |   |   |   |   |   |   |   |   |   |   seg-1 > 125
|   |   |   |   |   |   |   |   |   |   |   |   seg-1 <= 145: VT (8.0/1.0)
|   |   |   |   |   |   |   |   |   |   |   |   seg-1 > 145: VF (10.0/2.0)
|   |   |   |   |   |   |   |   |   seg-0 > 95: VT (8.0)
|   |   |   |   |   |   |   |   seg-0 > 115
|   |   |   |   |   |   |   |   |   seg-2 <= 125
|   |   |   |   |   |   |   |   |   |   seg-3 <= 60
|   |   |   |   |   |   |   |   |   |   |   seg-3 <= 55
|   |   |   |   |   |   |   |   |   |   |   |   seg-3 <= 42
|   |   |   |   |   |   |   |   |   |   |   |   |   seg-4 <= 95: VT (5.0/1.0)
|   |   |   |   |   |   |   |   |   |   |   |   |   seg-4 > 95: VF (3.0/1.0)
|   |   |   |   |   |   |   |   |   |   |   |   seg-3 > 42: VF (3.0)
|   |   |   |   |   |   |   |   |   |   |   seg-3 > 55: VT (3.0/1.0)
|   |   |   |   |   |   |   |   |   |   seg-3 > 60: VF (6.0/2.0)
|   |   |   |   |   |   |   |   |   seg-2 > 125
|   |   |   |   |   |   |   |   |   |   seg-2 <= 135
|   |   |   |   |   |   |   |   |   |   |   seg-0 <= 135: N (5.0/2.0)
|   |   |   |   |   |   |   |   |   |   |   seg-0 > 135: VFL (3.0)
|   |   |   |   |   |   |   |   |   |   seg-2 > 135: VT (6.0/1.0)
|   |   |   |   |   |   |   seg-4 > 125
|   |   |   |   |   |   |   |   seg-2 <= 135
|   |   |   |   |   |   |   |   |   seg-2 <= 125
|   |   |   |   |   |   |   |   |   |   seg-4 <= 135: N (5.0/2.0)
|   |   |   |   |   |   |   |   |   |   seg-4 > 135: VT (9.0/4.0)
|   |   |   |   |   |   |   |   |   seg-2 > 125: VT (4.0)
|   |   |   |   |   |   |   |   seg-2 > 135
|   |   |   |   |   |   |   |   |   seg-1 <= 125: VT (2.0)
|   |   |   |   |   |   |   |   |   seg-1 > 125: VFL (4.0/2.0)
|   |   |   |   |   |   seg-1 > 195
|   |   |   |   |   |   |   seg-3 <= 60: VT (11.0/2.0)
|   |   |   |   |   |   |   seg-3 > 60: ASYS (2.0/1.0)
|   |   |   |   |   seg-4 > 155
|   |   |   |   |   |   seg-2 <= 115
|   |   |   |   |   |   |   seg-1 <= 145: VT (3.0/1.0)
|   |   |   |   |   |   |   seg-1 > 145: B (2.0/1.0)
|   |   |   |   |   |   seg-2 > 115
|   |   |   |   |   |   |   seg-3 <= 60
|   |   |   |   |   |   |   |   seg-1 <= 165
|   |   |   |   |   |   |   |   |   seg-2 <= 135: VT (3.0)
|   |   |   |   |   |   |   |   |   seg-2 > 135: N (4.0/1.0)
|   |   |   |   |   |   |   |   seg-1 > 165: VF (8.0/3.0)
|   |   |   |   |   |   |   seg-3 > 60
|   |   |   |   |   |   |   |   seg-0 <= 100: PM (2.0)
|   |   |   |   |   |   |   |   seg-0 > 100: N (5.0/3.0)
|   |   |   |   seg-3 > 72
|   |   |   |   |   seg-0 <= 111
|   |   |   |   |   |   seg-2 <= 149
|   |   |   |   |   |   |   seg-0 <= 71
|   |   |   |   |   |   |   |   seg-2 <= 125
|   |   |   |   |   |   |   |   |   seg-2 <= 105
|   |   |   |   |   |   |   |   |   |   seg-1 <= 135
|   |   |   |   |   |   |   |   |   |   |   seg-3 <= 90: VT (2.0)
|   |   |   |   |   |   |   |   |   |   |   seg-3 > 90: ASYS (3.0/1.0)
|   |   |   |   |   |   |   |   |   |   seg-1 > 135
|   |   |   |   |   |   |   |   |   |   |   seg-4 <= 105: VT (3.0)
|   |   |   |   |   |   |   |   |   |   |   seg-4 > 105: N (2.0)
|   |   |   |   |   |   |   |   |   seg-2 > 105
|   |   |   |   |   |   |   |   |   |   seg-4 <= 110
|   |   |   |   |   |   |   |   |   |   |   seg-0 <= 54: VF (8.0/2.0)
|   |   |   |   |   |   |   |   |   |   |   seg-0 > 54: ASYS (2.0/1.0)
|   |   |   |   |   |   |   |   |   |   seg-4 > 110: VT (15.0/3.0)
|   |   |   |   |   |   |   |   seg-2 > 125
|   |   |   |   |   |   |   |   |   seg-2 <= 139
|   |   |   |   |   |   |   |   |   |   seg-1 <= 150
|   |   |   |   |   |   |   |   |   |   |   seg-3 <= 102
|   |   |   |   |   |   |   |   |   |   |   |   seg-4 <= 63: VF (3.0)
|   |   |   |   |   |   |   |   |   |   |   |   seg-4 > 63: VT (3.0/1.0)
|   |   |   |   |   |   |   |   |   |   |   seg-3 > 102
|   |   |   |   |   |   |   |   |   |   |   |   seg-1 <= 129: N (2.0)
|   |   |   |   |   |   |   |   |   |   |   |   seg-1 > 129: VF (3.0)
|   |   |   |   |   |   |   |   |   |   seg-1 > 150: N (7.0/1.0)
|   |   |   |   |   |   |   |   |   seg-2 > 139
|   |   |   |   |   |   |   |   |   |   seg-4 <= 170
|   |   |   |   |   |   |   |   |   |   |   seg-1 <= 135: VF (2.0)
|   |   |   |   |   |   |   |   |   |   |   seg-1 > 135
|   |   |   |   |   |   |   |   |   |   |   |   seg-0 <= 45: VF (2.0/1.0)
|   |   |   |   |   |   |   |   |   |   |   |   seg-0 > 45: VT (4.0/1.0)
|   |   |   |   |   |   |   |   |   |   seg-4 > 170: AFIB (2.0/1.0)
|   |   |   |   |   |   |   seg-0 > 71
|   |   |   |   |   |   |   |   seg-1 <= 141
|   |   |   |   |   |   |   |   |   seg-4 <= 71
|   |   |   |   |   |   |   |   |   |   seg-4 <= 63
|   |   |   |   |   |   |   |   |   |   |   seg-0 <= 95
|   |   |   |   |   |   |   |   |   |   |   |   seg-1 <= 135: VFL (2.0)
|   |   |   |   |   |   |   |   |   |   |   |   seg-1 > 135: VT (4.0/2.0)
|   |   |   |   |   |   |   |   |   |   |   seg-0 > 95: AFIB (2.0/1.0)
|   |   |   |   |   |   |   |   |   |   seg-4 > 63: VF (2.0)
|   |   |   |   |   |   |   |   |   seg-4 > 71
|   |   |   |   |   |   |   |   |   |   seg-0 <= 84
|   |   |   |   |   |   |   |   |   |   |   seg-1 <= 135
|   |   |   |   |   |   |   |   |   |   |   |   seg-4 <= 110: VFL (3.0/1.0)
|   |   |   |   |   |   |   |   |   |   |   |   seg-4 > 110: N (4.0/2.0)
|   |   |   |   |   |   |   |   |   |   |   seg-1 > 135: AFIB (2.0/1.0)
|   |   |   |   |   |   |   |   |   |   seg-0 > 84
|   |   |   |   |   |   |   |   |   |   |   seg-3 <= 111
|   |   |   |   |   |   |   |   |   |   |   |   seg-2 <= 112
|   |   |   |   |   |   |   |   |   |   |   |   |   seg-0 <= 95: N (12.0/7.0)
|   |   |   |   |   |   |   |   |   |   |   |   |   seg-0 > 95
|   |   |   |   |   |   |   |   |   |   |   |   |   |   seg-3 <= 95
|   |   |   |   |   |   |   |   |   |   |   |   |   |   |   seg-4 <= 135: AFIB (4.0/1.0)
|   |   |   |   |   |   |   |   |   |   |   |   |   |   |   seg-4 > 135: VT (6.0/2.0)
|   |   |   |   |   |   |   |   |   |   |   |   |   |   seg-3 > 95: VT (27.0/8.0)
|   |   |   |   |   |   |   |   |   |   |   |   seg-2 > 112
|   |   |   |   |   |   |   |   |   |   |   |   |   seg-0 <= 91
|   |   |   |   |   |   |   |   |   |   |   |   |   |   seg-4 <= 155: VT (4.0)
|   |   |   |   |   |   |   |   |   |   |   |   |   |   seg-4 > 155: AFIB (2.0/1.0)
|   |   |   |   |   |   |   |   |   |   |   |   |   seg-0 > 91: N (18.0/4.0)
|   |   |   |   |   |   |   |   |   |   |   seg-3 > 111: N (21.0/4.0)
|   |   |   |   |   |   |   |   seg-1 > 141
|   |   |   |   |   |   |   |   |   seg-3 <= 98
|   |   |   |   |   |   |   |   |   |   seg-2 <= 101: VF (3.0/1.0)
|   |   |   |   |   |   |   |   |   |   seg-2 > 101: N (58.0/7.0)
|   |   |   |   |   |   |   |   |   seg-3 > 98
|   |   |   |   |   |   |   |   |   |   seg-2 <= 123
|   |   |   |   |   |   |   |   |   |   |   seg-1 <= 149: N (2.0)
|   |   |   |   |   |   |   |   |   |   |   seg-1 > 149: VT (14.0/8.0)
|   |   |   |   |   |   |   |   |   |   seg-2 > 123
|   |   |   |   |   |   |   |   |   |   |   seg-0 <= 83: BI (4.0/1.0)
|   |   |   |   |   |   |   |   |   |   |   seg-0 > 83: N (6.0/1.0)
|   |   |   |   |   |   seg-2 > 149
|   |   |   |   |   |   |   seg-1 <= 227
|   |   |   |   |   |   |   |   seg-0 <= 74
|   |   |   |   |   |   |   |   |   seg-2 <= 155: VFL (8.0/3.0)
|   |   |   |   |   |   |   |   |   seg-2 > 155
|   |   |   |   |   |   |   |   |   |   seg-1 <= 175: VF (3.0/1.0)
|   |   |   |   |   |   |   |   |   |   seg-1 > 175: VT (2.0)
|   |   |   |   |   |   |   |   seg-0 > 74
|   |   |   |   |   |   |   |   |   seg-1 <= 165
|   |   |   |   |   |   |   |   |   |   seg-4 <= 95
|   |   |   |   |   |   |   |   |   |   |   seg-2 <= 155: VT (3.0/1.0)
|   |   |   |   |   |   |   |   |   |   |   seg-2 > 155: VF (4.0/2.0)
|   |   |   |   |   |   |   |   |   |   seg-4 > 95
|   |   |   |   |   |   |   |   |   |   |   seg-1 <= 155
|   |   |   |   |   |   |   |   |   |   |   |   seg-0 <= 83: VF (2.0/1.0)
|   |   |   |   |   |   |   |   |   |   |   |   seg-0 > 83: N (12.0/4.0)
|   |   |   |   |   |   |   |   |   |   |   seg-1 > 155: HGEA (3.0/1.0)
|   |   |   |   |   |   |   |   |   seg-1 > 165
|   |   |   |   |   |   |   |   |   |   seg-1 <= 205
|   |   |   |   |   |   |   |   |   |   |   seg-2 <= 155
|   |   |   |   |   |   |   |   |   |   |   |   seg-0 <= 95: BI (5.0/2.0)
|   |   |   |   |   |   |   |   |   |   |   |   seg-0 > 95: N (2.0/1.0)
|   |   |   |   |   |   |   |   |   |   |   seg-2 > 155: VFL (4.0/1.0)
|   |   |   |   |   |   |   |   |   |   seg-1 > 205: N (2.0/1.0)
|   |   |   |   |   |   |   seg-1 > 227
|   |   |   |   |   |   |   |   seg-1 <= 280: VT (3.0/1.0)
|   |   |   |   |   |   |   |   seg-1 > 280: HGEA (6.0/1.0)
|   |   |   |   |   seg-0 > 111
|   |   |   |   |   |   seg-1 <= 158
|   |   |   |   |   |   |   seg-2 <= 128
|   |   |   |   |   |   |   |   seg-3 <= 91
|   |   |   |   |   |   |   |   |   seg-0 <= 235
|   |   |   |   |   |   |   |   |   |   seg-4 <= 165
|   |   |   |   |   |   |   |   |   |   |   seg-3 <= 84
|   |   |   |   |   |   |   |   |   |   |   |   seg-1 <= 139
|   |   |   |   |   |   |   |   |   |   |   |   |   seg-4 <= 115: N (4.0/2.0)
|   |   |   |   |   |   |   |   |   |   |   |   |   seg-4 > 115: VT (4.0/1.0)
|   |   |   |   |   |   |   |   |   |   |   |   seg-1 > 139
|   |   |   |   |   |   |   |   |   |   |   |   |   seg-2 <= 105: VF (2.0)
|   |   |   |   |   |   |   |   |   |   |   |   |   seg-2 > 105: AFIB (2.0/1.0)
|   |   |   |   |   |   |   |   |   |   |   seg-3 > 84
|   |   |   |   |   |   |   |   |   |   |   |   seg-2 <= 105: N (2.0)
|   |   |   |   |   |   |   |   |   |   |   |   seg-2 > 105
|   |   |   |   |   |   |   |   |   |   |   |   |   seg-1 <= 135: N (6.0/2.0)
|   |   |   |   |   |   |   |   |   |   |   |   |   seg-1 > 135: VT (3.0)
|   |   |   |   |   |   |   |   |   |   seg-4 > 165
|   |   |   |   |   |   |   |   |   |   |   seg-0 <= 125: BI (3.0)
|   |   |   |   |   |   |   |   |   |   |   seg-0 > 125: N (3.0/1.0)
|   |   |   |   |   |   |   |   |   seg-0 > 235: HGEA (2.0/1.0)
|   |   |   |   |   |   |   |   seg-3 > 91
|   |   |   |   |   |   |   |   |   seg-1 <= 146: N (70.0/11.0)
|   |   |   |   |   |   |   |   |   seg-1 > 146
|   |   |   |   |   |   |   |   |   |   seg-4 <= 144
|   |   |   |   |   |   |   |   |   |   |   seg-4 <= 116: BI (2.0)
|   |   |   |   |   |   |   |   |   |   |   seg-4 > 116: N (6.0)
|   |   |   |   |   |   |   |   |   |   seg-4 > 144: BI (3.0/1.0)
|   |   |   |   |   |   |   seg-2 > 128
|   |   |   |   |   |   |   |   seg-0 <= 130
|   |   |   |   |   |   |   |   |   seg-4 <= 115
|   |   |   |   |   |   |   |   |   |   seg-3 <= 115
|   |   |   |   |   |   |   |   |   |   |   seg-1 <= 125: AFIB (5.0/2.0)
|   |   |   |   |   |   |   |   |   |   |   seg-1 > 125
|   |   |   |   |   |   |   |   |   |   |   |   seg-3 <= 85: N (6.0/1.0)
|   |   |   |   |   |   |   |   |   |   |   |   seg-3 > 85
|   |   |   |   |   |   |   |   |   |   |   |   |   seg-3 <= 105
|   |   |   |   |   |   |   |   |   |   |   |   |   |   seg-3 <= 95: VT (3.0/1.0)
|   |   |   |   |   |   |   |   |   |   |   |   |   |   seg-3 > 95: AFIB (3.0/1.0)
|   |   |   |   |   |   |   |   |   |   |   |   |   seg-3 > 105: N (2.0)
|   |   |   |   |   |   |   |   |   |   seg-3 > 115
|   |   |   |   |   |   |   |   |   |   |   seg-2 <= 135: BI (5.0)
|   |   |   |   |   |   |   |   |   |   |   seg-2 > 135: AFIB (2.0/1.0)
|   |   |   |   |   |   |   |   |   seg-4 > 115
|   |   |   |   |   |   |   |   |   |   seg-2 <= 135
|   |   |   |   |   |   |   |   |   |   |   seg-1 <= 135: N (55.0/17.0)
|   |   |   |   |   |   |   |   |   |   |   seg-1 > 135
|   |   |   |   |   |   |   |   |   |   |   |   seg-3 <= 85: N (5.0)
|   |   |   |   |   |   |   |   |   |   |   |   seg-3 > 85: BI (7.0/3.0)
|   |   |   |   |   |   |   |   |   |   seg-2 > 135
|   |   |   |   |   |   |   |   |   |   |   seg-3 <= 107
|   |   |   |   |   |   |   |   |   |   |   |   seg-0 <= 125: VT (4.0/1.0)
|   |   |   |   |   |   |   |   |   |   |   |   seg-0 > 125: N (6.0/1.0)
|   |   |   |   |   |   |   |   |   |   |   seg-3 > 107
|   |   |   |   |   |   |   |   |   |   |   |   seg-3 <= 115: BI (2.0)
|   |   |   |   |   |   |   |   |   |   |   |   seg-3 > 115: N (4.0/1.0)
|   |   |   |   |   |   |   |   seg-0 > 130
|   |   |   |   |   |   |   |   |   seg-4 <= 145
|   |   |   |   |   |   |   |   |   |   seg-3 <= 91
|   |   |   |   |   |   |   |   |   |   |   seg-1 <= 147: N (6.0/2.0)
|   |   |   |   |   |   |   |   |   |   |   seg-1 > 147: VFL (3.0/1.0)
|   |   |   |   |   |   |   |   |   |   seg-3 > 91
|   |   |   |   |   |   |   |   |   |   |   seg-0 <= 185
|   |   |   |   |   |   |   |   |   |   |   |   seg-2 <= 132
|   |   |   |   |   |   |   |   |   |   |   |   |   seg-0 <= 155
|   |   |   |   |   |   |   |   |   |   |   |   |   |   seg-4 <= 125: BI (3.0)
|   |   |   |   |   |   |   |   |   |   |   |   |   |   seg-4 > 125: N (3.0/1.0)
|   |   |   |   |   |   |   |   |   |   |   |   |   seg-0 > 155: BI (16.0/1.0)
|   |   |   |   |   |   |   |   |   |   |   |   seg-2 > 132
|   |   |   |   |   |   |   |   |   |   |   |   |   seg-2 <= 149
|   |   |   |   |   |   |   |   |   |   |   |   |   |   seg-2 <= 137: N (2.0)
|   |   |   |   |   |   |   |   |   |   |   |   |   |   seg-2 > 137
|   |   |   |   |   |   |   |   |   |   |   |   |   |   |   seg-3 <= 115: BI (4.0)
|   |   |   |   |   |   |   |   |   |   |   |   |   |   |   seg-3 > 115: N (4.0/1.0)
|   |   |   |   |   |   |   |   |   |   |   |   |   seg-2 > 149: N (2.0/1.0)
|   |   |   |   |   |   |   |   |   |   |   seg-0 > 185
|   |   |   |   |   |   |   |   |   |   |   |   seg-4 <= 115: N (3.0/1.0)
|   |   |   |   |   |   |   |   |   |   |   |   seg-4 > 115: VT (4.0/1.0)
|   |   |   |   |   |   |   |   |   seg-4 > 145
|   |   |   |   |   |   |   |   |   |   seg-4 <= 200: BI (113.0/37.0)
|   |   |   |   |   |   |   |   |   |   seg-4 > 200: N (13.0/2.0)
|   |   |   |   |   |   seg-1 > 158
|   |   |   |   |   |   |   seg-2 <= 147
|   |   |   |   |   |   |   |   seg-0 <= 153
|   |   |   |   |   |   |   |   |   seg-2 <= 105: N (6.0/1.0)
|   |   |   |   |   |   |   |   |   seg-2 > 105
|   |   |   |   |   |   |   |   |   |   seg-3 <= 115
|   |   |   |   |   |   |   |   |   |   |   seg-2 <= 135: VT (15.0/8.0)
|   |   |   |   |   |   |   |   |   |   |   seg-2 > 135: N (3.0)
|   |   |   |   |   |   |   |   |   |   seg-3 > 115
|   |   |   |   |   |   |   |   |   |   |   seg-2 <= 125: AFIB (2.0/1.0)
|   |   |   |   |   |   |   |   |   |   |   seg-2 > 125: VT (4.0)
|   |   |   |   |   |   |   |   seg-0 > 153
|   |   |   |   |   |   |   |   |   seg-1 <= 192
|   |   |   |   |   |   |   |   |   |   seg-2 <= 115
|   |   |   |   |   |   |   |   |   |   |   seg-1 <= 165
|   |   |   |   |   |   |   |   |   |   |   |   seg-0 <= 175: N (2.0)
|   |   |   |   |   |   |   |   |   |   |   |   seg-0 > 175: HGEA (3.0/2.0)
|   |   |   |   |   |   |   |   |   |   |   seg-1 > 165: HGEA (12.0/2.0)
|   |   |   |   |   |   |   |   |   |   seg-2 > 115: VFL (4.0/1.0)
|   |   |   |   |   |   |   |   |   seg-1 > 192
|   |   |   |   |   |   |   |   |   |   seg-3 <= 115
|   |   |   |   |   |   |   |   |   |   |   seg-4 <= 185: VF (2.0/1.0)
|   |   |   |   |   |   |   |   |   |   |   seg-4 > 185: N (6.0)
|   |   |   |   |   |   |   |   |   |   seg-3 > 115: PM (7.0/2.0)
|   |   |   |   |   |   |   seg-2 > 147
|   |   |   |   |   |   |   |   seg-1 <= 215
|   |   |   |   |   |   |   |   |   seg-3 <= 105: VFL (10.0/2.0)
|   |   |   |   |   |   |   |   |   seg-3 > 105: BI (6.0/2.0)
|   |   |   |   |   |   |   |   seg-1 > 215
|   |   |   |   |   |   |   |   |   seg-3 <= 105
|   |   |   |   |   |   |   |   |   |   seg-1 <= 250: VF (2.0/1.0)
|   |   |   |   |   |   |   |   |   |   seg-1 > 250: HGEA (3.0)
|   |   |   |   |   |   |   |   |   seg-3 > 105: NOD (3.0/2.0)
|   |   |   seg-2 > 165
|   |   |   |   seg-1 <= 251
|   |   |   |   |   seg-0 <= 175
|   |   |   |   |   |   seg-3 <= 112
|   |   |   |   |   |   |   seg-4 <= 141
|   |   |   |   |   |   |   |   seg-2 <= 208
|   |   |   |   |   |   |   |   |   seg-0 <= 145
|   |   |   |   |   |   |   |   |   |   seg-4 <= 42: VF (3.0)
|   |   |   |   |   |   |   |   |   |   seg-4 > 42
|   |   |   |   |   |   |   |   |   |   |   seg-2 <= 195: VT (32.0/12.0)
|   |   |   |   |   |   |   |   |   |   |   seg-2 > 195
|   |   |   |   |   |   |   |   |   |   |   |   seg-1 <= 133: VT (2.0)
|   |   |   |   |   |   |   |   |   |   |   |   seg-1 > 133: N (2.0)
|   |   |   |   |   |   |   |   |   seg-0 > 145
|   |   |   |   |   |   |   |   |   |   seg-2 <= 185: ASYS (2.0/1.0)
|   |   |   |   |   |   |   |   |   |   seg-2 > 185: VT (2.0)
|   |   |   |   |   |   |   |   seg-2 > 208
|   |   |   |   |   |   |   |   |   seg-2 <= 220
|   |   |   |   |   |   |   |   |   |   seg-3 <= 72: VF (3.0/1.0)
|   |   |   |   |   |   |   |   |   |   seg-3 > 72: PM (2.0)
|   |   |   |   |   |   |   |   |   seg-2 > 220
|   |   |   |   |   |   |   |   |   |   seg-1 <= 125
|   |   |   |   |   |   |   |   |   |   |   seg-3 <= 70
|   |   |   |   |   |   |   |   |   |   |   |   seg-0 <= 115: AFIB (2.0/1.0)
|   |   |   |   |   |   |   |   |   |   |   |   seg-0 > 115: VT (3.0/1.0)
|   |   |   |   |   |   |   |   |   |   |   seg-3 > 70
|   |   |   |   |   |   |   |   |   |   |   |   seg-4 <= 85: VF (2.0)
|   |   |   |   |   |   |   |   |   |   |   |   seg-4 > 85: N (3.0/1.0)
|   |   |   |   |   |   |   |   |   |   seg-1 > 125
|   |   |   |   |   |   |   |   |   |   |   seg-2 <= 255: VFL (7.0/3.0)
|   |   |   |   |   |   |   |   |   |   |   seg-2 > 255
|   |   |   |   |   |   |   |   |   |   |   |   seg-1 <= 170: VT (4.0/1.0)
|   |   |   |   |   |   |   |   |   |   |   |   seg-1 > 170: VF (4.0)
|   |   |   |   |   |   |   seg-4 > 141
|   |   |   |   |   |   |   |   seg-1 <= 165
|   |   |   |   |   |   |   |   |   seg-3 <= 42
|   |   |   |   |   |   |   |   |   |   seg-0 <= 130: VF (2.0/1.0)
|   |   |   |   |   |   |   |   |   |   seg-0 > 130: HGEA (2.0)
|   |   |   |   |   |   |   |   |   seg-3 > 42
|   |   |   |   |   |   |   |   |   |   seg-2 <= 173: BI (2.0/1.0)
|   |   |   |   |   |   |   |   |   |   seg-2 > 173: N (8.0/2.0)
|   |   |   |   |   |   |   |   seg-1 > 165
|   |   |   |   |   |   |   |   |   seg-3 <= 75
|   |   |   |   |   |   |   |   |   |   seg-4 <= 175: PM (3.0)
|   |   |   |   |   |   |   |   |   |   seg-4 > 175: VFL (3.0)
|   |   |   |   |   |   |   |   |   seg-3 > 75
|   |   |   |   |   |   |   |   |   |   seg-2 <= 225: VT (2.0)
|   |   |   |   |   |   |   |   |   |   seg-2 > 225: N (2.0/1.0)
|   |   |   |   |   |   seg-3 > 112
|   |   |   |   |   |   |   seg-1 <= 155: N (9.0/4.0)
|   |   |   |   |   |   |   seg-1 > 155
|   |   |   |   |   |   |   |   seg-1 <= 190: B (2.0)
|   |   |   |   |   |   |   |   seg-1 > 190: NOD (2.0/1.0)
|   |   |   |   |   seg-0 > 175
|   |   |   |   |   |   seg-2 <= 242
|   |   |   |   |   |   |   seg-1 <= 165
|   |   |   |   |   |   |   |   seg-1 <= 130: B (2.0/1.0)
|   |   |   |   |   |   |   |   seg-1 > 130: N (2.0/1.0)
|   |   |   |   |   |   |   seg-1 > 165
|   |   |   |   |   |   |   |   seg-4 <= 264: PM (36.0/4.0)
|   |   |   |   |   |   |   |   seg-4 > 264: N (2.0)
|   |   |   |   |   |   seg-2 > 242
|   |   |   |   |   |   |   seg-0 <= 244
|   |   |   |   |   |   |   |   seg-2 <= 285: B (2.0/1.0)
|   |   |   |   |   |   |   |   seg-2 > 285: VT (3.0/1.0)
|   |   |   |   |   |   |   seg-0 > 244
|   |   |   |   |   |   |   |   seg-4 <= 230: VF (5.0)
|   |   |   |   |   |   |   |   seg-4 > 230: SVTA (2.0/1.0)
|   |   |   |   seg-1 > 251
|   |   |   |   |   seg-2 <= 220
|   |   |   |   |   |   seg-3 <= 85
|   |   |   |   |   |   |   seg-4 <= 190: VT (3.0)
|   |   |   |   |   |   |   seg-4 > 190: N (3.0/1.0)
|   |   |   |   |   |   seg-3 > 85
|   |   |   |   |   |   |   seg-1 <= 290
|   |   |   |   |   |   |   |   seg-4 <= 87: HGEA (2.0)
|   |   |   |   |   |   |   |   seg-4 > 87: VF (2.0)
|   |   |   |   |   |   |   seg-1 > 290: HGEA (19.0/1.0)
|   |   |   |   |   seg-2 > 220
|   |   |   |   |   |   seg-4 <= 320
|   |   |   |   |   |   |   seg-1 <= 680: N (11.0/3.0)
|   |   |   |   |   |   |   seg-1 > 680: VF (2.0)
|   |   |   |   |   |   seg-4 > 320
|   |   |   |   |   |   |   seg-1 <= 355: VFL (2.0)
|   |   |   |   |   |   |   seg-1 > 355: ASYS (2.0/1.0)
seg-3 > 120
|   seg-0 <= 190
|   |   seg-0 <= 120
|   |   |   seg-4 <= 75
|   |   |   |   seg-4 <= 63
|   |   |   |   |   seg-0 <= 54
|   |   |   |   |   |   seg-0 <= 45
|   |   |   |   |   |   |   seg-0 <= 33: VF (2.0)
|   |   |   |   |   |   |   seg-0 > 33
|   |   |   |   |   |   |   |   seg-2 <= 135
|   |   |   |   |   |   |   |   |   seg-3 <= 155
|   |   |   |   |   |   |   |   |   |   seg-1 <= 140: VT (4.0/1.0)
|   |   |   |   |   |   |   |   |   |   seg-1 > 140: VF (3.0)
|   |   |   |   |   |   |   |   |   seg-3 > 155: VT (8.0/3.0)
|   |   |   |   |   |   |   |   seg-2 > 135: VF (4.0)
|   |   |   |   |   |   seg-0 > 45
|   |   |   |   |   |   |   seg-1 <= 65: VF (3.0/1.0)
|   |   |   |   |   |   |   seg-1 > 65
|   |   |   |   |   |   |   |   seg-1 <= 95: VT (10.0/3.0)
|   |   |   |   |   |   |   |   seg-1 > 95: VF (3.0)
|   |   |   |   |   seg-0 > 54
|   |   |   |   |   |   seg-4 <= 54
|   |   |   |   |   |   |   seg-1 <= 145
|   |   |   |   |   |   |   |   seg-2 <= 35: N (2.0/1.0)
|   |   |   |   |   |   |   |   seg-2 > 35
|   |   |   |   |   |   |   |   |   seg-1 <= 125
|   |   |   |   |   |   |   |   |   |   seg-2 <= 55
|   |   |   |   |   |   |   |   |   |   |   seg-0 <= 105: ASYS (2.0/1.0)
|   |   |   |   |   |   |   |   |   |   |   seg-0 > 105: VF (8.0/2.0)
|   |   |   |   |   |   |   |   |   |   seg-2 > 55
|   |   |   |   |   |   |   |   |   |   |   seg-4 <= 42
|   |   |   |   |   |   |   |   |   |   |   |   seg-2 <= 75: VT (9.0/1.0)
|   |   |   |   |   |   |   |   |   |   |   |   seg-2 > 75
|   |   |   |   |   |   |   |   |   |   |   |   |   seg-3 <= 185: VF (13.0/3.0)
|   |   |   |   |   |   |   |   |   |   |   |   |   seg-3 > 185: VT (5.0/1.0)
|   |   |   |   |   |   |   |   |   |   |   seg-4 > 42: VT (26.0/6.0)
|   |   |   |   |   |   |   |   |   seg-1 > 125
|   |   |   |   |   |   |   |   |   |   seg-2 <= 80: VT (3.0)
|   |   |   |   |   |   |   |   |   |   seg-2 > 80: ASYS (2.0)
|   |   |   |   |   |   |   seg-1 > 145: VF (17.0/8.0)
|   |   |   |   |   |   seg-4 > 54
|   |   |   |   |   |   |   seg-0 <= 95
|   |   |   |   |   |   |   |   seg-0 <= 74
|   |   |   |   |   |   |   |   |   seg-3 <= 135: VT (11.0/1.0)
|   |   |   |   |   |   |   |   |   seg-3 > 135
|   |   |   |   |   |   |   |   |   |   seg-3 <= 160
|   |   |   |   |   |   |   |   |   |   |   seg-2 <= 115
|   |   |   |   |   |   |   |   |   |   |   |   seg-0 <= 65: VT (3.0/1.0)
|   |   |   |   |   |   |   |   |   |   |   |   seg-0 > 65: VFL (4.0/1.0)
|   |   |   |   |   |   |   |   |   |   |   seg-2 > 115: N (3.0/1.0)
|   |   |   |   |   |   |   |   |   |   seg-3 > 160
|   |   |   |   |   |   |   |   |   |   |   seg-1 <= 70: VT (2.0)
|   |   |   |   |   |   |   |   |   |   |   seg-1 > 70: N (3.0/1.0)
|   |   |   |   |   |   |   |   seg-0 > 74
|   |   |   |   |   |   |   |   |   seg-2 <= 55: N (2.0/1.0)
|   |   |   |   |   |   |   |   |   seg-2 > 55
|   |   |   |   |   |   |   |   |   |   seg-1 <= 145: VF (6.0/1.0)
|   |   |   |   |   |   |   |   |   |   seg-1 > 145: VFL (2.0/1.0)
|   |   |   |   |   |   |   seg-0 > 95
|   |   |   |   |   |   |   |   seg-2 <= 210: VT (15.0/4.0)
|   |   |   |   |   |   |   |   seg-2 > 210: ASYS (2.0/1.0)
|   |   |   |   seg-4 > 63
|   |   |   |   |   seg-3 <= 165: VT (35.0/11.0)
|   |   |   |   |   seg-3 > 165
|   |   |   |   |   |   seg-3 <= 225
|   |   |   |   |   |   |   seg-2 <= 105: VF (9.0/1.0)
|   |   |   |   |   |   |   seg-2 > 105: N (3.0/2.0)
|   |   |   |   |   |   seg-3 > 225: AFIB (3.0/2.0)
|   |   |   seg-4 > 75
|   |   |   |   seg-2 <= 186
|   |   |   |   |   seg-2 <= 110
|   |   |   |   |   |   seg-0 <= 71
|   |   |   |   |   |   |   seg-3 <= 215
|   |   |   |   |   |   |   |   seg-4 <= 175
|   |   |   |   |   |   |   |   |   seg-1 <= 160
|   |   |   |   |   |   |   |   |   |   seg-2 <= 55
|   |   |   |   |   |   |   |   |   |   |   seg-0 <= 45: N (7.0/4.0)
|   |   |   |   |   |   |   |   |   |   |   seg-0 > 45
|   |   |   |   |   |   |   |   |   |   |   |   seg-1 <= 95: VT (5.0/1.0)
|   |   |   |   |   |   |   |   |   |   |   |   seg-1 > 95: VF (8.0/3.0)
|   |   |   |   |   |   |   |   |   |   seg-2 > 55
|   |   |   |   |   |   |   |   |   |   |   seg-4 <= 91
|   |   |   |   |   |   |   |   |   |   |   |   seg-2 <= 85: VT (12.0)
|   |   |   |   |   |   |   |   |   |   |   |   seg-2 > 85
|   |   |   |   |   |   |   |   |   |   |   |   |   seg-4 <= 85
|   |   |   |   |   |   |   |   |   |   |   |   |   |   seg-0 <= 54: VF (3.0)
|   |   |   |   |   |   |   |   |   |   |   |   |   |   seg-0 > 54: AFIB (2.0/1.0)
|   |   |   |   |   |   |   |   |   |   |   |   |   seg-4 > 85: VT (3.0/1.0)
|   |   |   |   |   |   |   |   |   |   |   seg-4 > 91: VT (34.0/13.0)
|   |   |   |   |   |   |   |   |   seg-1 > 160
|   |   |   |   |   |   |   |   |   |   seg-4 <= 85: ASYS (2.0/1.0)
|   |   |   |   |   |   |   |   |   |   seg-4 > 85: VT (17.0/3.0)
|   |   |   |   |   |   |   |   seg-4 > 175
|   |   |   |   |   |   |   |   |   seg-3 <= 131: VFL (3.0/1.0)
|   |   |   |   |   |   |   |   |   seg-3 > 131
|   |   |   |   |   |   |   |   |   |   seg-0 <= 45: N (4.0/1.0)
|   |   |   |   |   |   |   |   |   |   seg-0 > 45
|   |   |   |   |   |   |   |   |   |   |   seg-2 <= 65: VER (2.0/1.0)
|   |   |   |   |   |   |   |   |   |   |   seg-2 > 65: VF (8.0/3.0)
|   |   |   |   |   |   |   seg-3 > 215
|   |   |   |   |   |   |   |   seg-0 <= 54
|   |   |   |   |   |   |   |   |   seg-3 <= 245: VT (5.0/2.0)
|   |   |   |   |   |   |   |   |   seg-3 > 245
|   |   |   |   |   |   |   |   |   |   seg-1 <= 85: AFIB (2.0/1.0)
|   |   |   |   |   |   |   |   |   |   seg-1 > 85: VF (2.0)
|   |   |   |   |   |   |   |   seg-0 > 54: VFL (11.0/7.0)
|   |   |   |   |   |   seg-0 > 71
|   |   |   |   |   |   |   seg-1 <= 74
|   |   |   |   |   |   |   |   seg-3 <= 384
|   |   |   |   |   |   |   |   |   seg-1 <= 65
|   |   |   |   |   |   |   |   |   |   seg-4 <= 95: VT (16.0/5.0)
|   |   |   |   |   |   |   |   |   |   seg-4 > 95
|   |   |   |   |   |   |   |   |   |   |   seg-3 <= 145: VF (5.0/1.0)
|   |   |   |   |   |   |   |   |   |   |   seg-3 > 145
|   |   |   |   |   |   |   |   |   |   |   |   seg-1 <= 55
|   |   |   |   |   |   |   |   |   |   |   |   |   seg-4 <= 145
|   |   |   |   |   |   |   |   |   |   |   |   |   |   seg-4 <= 115: VF (2.0)
|   |   |   |   |   |   |   |   |   |   |   |   |   |   seg-4 > 115: VT (5.0/1.0)
|   |   |   |   |   |   |   |   |   |   |   |   |   seg-4 > 145: VF (3.0)
|   |   |   |   |   |   |   |   |   |   |   |   seg-1 > 55: VFL (4.0/2.0)
|   |   |   |   |   |   |   |   |   seg-1 > 65: VT (16.0/3.0)
|   |   |   |   |   |   |   |   seg-3 > 384: AFIB (2.0/1.0)
|   |   |   |   |   |   |   seg-1 > 74
|   |   |   |   |   |   |   |   seg-4 <= 146
|   |   |   |   |   |   |   |   |   seg-2 <= 80
|   |   |   |   |   |   |   |   |   |   seg-0 <= 115
|   |   |   |   |   |   |   |   |   |   |   seg-1 <= 135
|   |   |   |   |   |   |   |   |   |   |   |   seg-1 <= 125
|   |   |   |   |   |   |   |   |   |   |   |   |   seg-3 <= 175
|   |   |   |   |   |   |   |   |   |   |   |   |   |   seg-4 <= 105
|   |   |   |   |   |   |   |   |   |   |   |   |   |   |   seg-0 <= 95: VT (16.0/6.0)
|   |   |   |   |   |   |   |   |   |   |   |   |   |   |   seg-0 > 95
|   |   |   |   |   |   |   |   |   |   |   |   |   |   |   |   seg-0 <= 105
|   |   |   |   |   |   |   |   |   |   |   |   |   |   |   |   |   seg-2 <= 70: VF (2.0/1.0)
|   |   |   |   |   |   |   |   |   |   |   |   |   |   |   |   |   seg-2 > 70: N (3.0/1.0)
|   |   |   |   |   |   |   |   |   |   |   |   |   |   |   |   seg-0 > 105
|   |   |   |   |   |   |   |   |   |   |   |   |   |   |   |   |   seg-2 <= 65: VF (2.0)
|   |   |   |   |   |   |   |   |   |   |   |   |   |   |   |   |   seg-2 > 65: VT (2.0)
|   |   |   |   |   |   |   |   |   |   |   |   |   |   seg-4 > 105
|   |   |   |   |   |   |   |   |   |   |   |   |   |   |   seg-0 <= 85: VT (6.0/2.0)
|   |   |   |   |   |   |   |   |   |   |   |   |   |   |   seg-0 > 85: N (11.0/5.0)
|   |   |   |   |   |   |   |   |   |   |   |   |   seg-3 > 175
|   |   |   |   |   |   |   |   |   |   |   |   |   |   seg-4 <= 135
|   |   |   |   |   |   |   |   |   |   |   |   |   |   |   seg-2 <= 75: VT (6.0/1.0)
|   |   |   |   |   |   |   |   |   |   |   |   |   |   |   seg-2 > 75: ASYS (2.0/1.0)
|   |   |   |   |   |   |   |   |   |   |   |   |   |   seg-4 > 135: AFIB (2.0/1.0)
|   |   |   |   |   |   |   |   |   |   |   |   seg-1 > 125: VF (6.0/1.0)
|   |   |   |   |   |   |   |   |   |   |   seg-1 > 135
|   |   |   |   |   |   |   |   |   |   |   |   seg-4 <= 95: N (6.0/2.0)
|   |   |   |   |   |   |   |   |   |   |   |   seg-4 > 95
|   |   |   |   |   |   |   |   |   |   |   |   |   seg-1 <= 145: AFIB (3.0/2.0)
|   |   |   |   |   |   |   |   |   |   |   |   |   seg-1 > 145: VT (7.0/1.0)
|   |   |   |   |   |   |   |   |   |   seg-0 > 115
|   |   |   |   |   |   |   |   |   |   |   seg-4 <= 125
|   |   |   |   |   |   |   |   |   |   |   |   seg-4 <= 105: VT (5.0/3.0)
|   |   |   |   |   |   |   |   |   |   |   |   seg-4 > 105: VF (6.0/1.0)
|   |   |   |   |   |   |   |   |   |   |   seg-4 > 125
|   |   |   |   |   |   |   |   |   |   |   |   seg-1 <= 135: BI (2.0)
|   |   |   |   |   |   |   |   |   |   |   |   seg-1 > 135: N (4.0)
|   |   |   |   |   |   |   |   |   seg-2 > 80
|   |   |   |   |   |   |   |   |   |   seg-4 <= 84
|   |   |   |   |   |   |   |   |   |   |   seg-3 <= 180: VT (8.0)
|   |   |   |   |   |   |   |   |   |   |   seg-3 > 180: N (2.0)
|   |   |   |   |   |   |   |   |   |   seg-4 > 84
|   |   |   |   |   |   |   |   |   |   |   seg-3 <= 161
|   |   |   |   |   |   |   |   |   |   |   |   seg-4 <= 93
|   |   |   |   |   |   |   |   |   |   |   |   |   seg-3 <= 135: VF (3.0/1.0)
|   |   |   |   |   |   |   |   |   |   |   |   |   seg-3 > 135: N (3.0/1.0)
|   |   |   |   |   |   |   |   |   |   |   |   seg-4 > 93
|   |   |   |   |   |   |   |   |   |   |   |   |   seg-4 <= 132
|   |   |   |   |   |   |   |   |   |   |   |   |   |   seg-1 <= 122
|   |   |   |   |   |   |   |   |   |   |   |   |   |   |   seg-0 <= 91
|   |   |   |   |   |   |   |   |   |   |   |   |   |   |   |   seg-3 <= 135
|   |   |   |   |   |   |   |   |   |   |   |   |   |   |   |   |   seg-2 <= 95: N (2.0/1.0)
|   |   |   |   |   |   |   |   |   |   |   |   |   |   |   |   |   seg-2 > 95: AFIB (4.0/1.0)
|   |   |   |   |   |   |   |   |   |   |   |   |   |   |   |   seg-3 > 135: N (4.0)
|   |   |   |   |   |   |   |   |   |   |   |   |   |   |   seg-0 > 91
|   |   |   |   |   |   |   |   |   |   |   |   |   |   |   |   seg-4 <= 125: N (26.0/10.0)
|   |   |   |   |   |   |   |   |   |   |   |   |   |   |   |   seg-4 > 125: AFIB (6.0/2.0)
|   |   |   |   |   |   |   |   |   |   |   |   |   |   seg-1 > 122
|   |   |   |   |   |   |   |   |   |   |   |   |   |   |   seg-0 <= 116: N (19.0/5.0)
|   |   |   |   |   |   |   |   |   |   |   |   |   |   |   seg-0 > 116: BI (2.0)
|   |   |   |   |   |   |   |   |   |   |   |   |   seg-4 > 132: N (12.0)
|   |   |   |   |   |   |   |   |   |   |   seg-3 > 161
|   |   |   |   |   |   |   |   |   |   |   |   seg-3 <= 215
|   |   |   |   |   |   |   |   |   |   |   |   |   seg-3 <= 209: N (23.0/4.0)
|   |   |   |   |   |   |   |   |   |   |   |   |   seg-3 > 209: VF (2.0)
|   |   |   |   |   |   |   |   |   |   |   |   seg-3 > 215
|   |   |   |   |   |   |   |   |   |   |   |   |   seg-4 <= 128
|   |   |   |   |   |   |   |   |   |   |   |   |   |   seg-3 <= 231: VT (2.0)
|   |   |   |   |   |   |   |   |   |   |   |   |   |   seg-3 > 231: N (5.0/1.0)
|   |   |   |   |   |   |   |   |   |   |   |   |   seg-4 > 128: VT (4.0/1.0)
|   |   |   |   |   |   |   |   seg-4 > 146
|   |   |   |   |   |   |   |   |   seg-4 <= 169
|   |   |   |   |   |   |   |   |   |   seg-3 <= 165: N (12.0/6.0)
|   |   |   |   |   |   |   |   |   |   seg-3 > 165
|   |   |   |   |   |   |   |   |   |   |   seg-1 <= 120: VFL (6.0/1.0)
|   |   |   |   |   |   |   |   |   |   |   seg-1 > 120: N (5.0/2.0)
|   |   |   |   |   |   |   |   |   seg-4 > 169
|   |   |   |   |   |   |   |   |   |   seg-0 <= 108
|   |   |   |   |   |   |   |   |   |   |   seg-0 <= 98
|   |   |   |   |   |   |   |   |   |   |   |   seg-2 <= 91
|   |   |   |   |   |   |   |   |   |   |   |   |   seg-4 <= 173
|   |   |   |   |   |   |   |   |   |   |   |   |   |   seg-3 <= 225: VT (2.0)
|   |   |   |   |   |   |   |   |   |   |   |   |   |   seg-3 > 225: BI (2.0/1.0)
|   |   |   |   |   |   |   |   |   |   |   |   |   seg-4 > 173
|   |   |   |   |   |   |   |   |   |   |   |   |   |   seg-2 <= 85: N (5.0/2.0)
|   |   |   |   |   |   |   |   |   |   |   |   |   |   seg-2 > 85: VF (2.0)
|   |   |   |   |   |   |   |   |   |   |   |   seg-2 > 91
|   |   |   |   |   |   |   |   |   |   |   |   |   seg-4 <= 175: N (3.0/1.0)
|   |   |   |   |   |   |   |   |   |   |   |   |   seg-4 > 175: HGEA (2.0)
|   |   |   |   |   |   |   |   |   |   |   seg-0 > 98
|   |   |   |   |   |   |   |   |   |   |   |   seg-4 <= 185: HGEA (4.0/1.0)
|   |   |   |   |   |   |   |   |   |   |   |   seg-4 > 185: VT (4.0/1.0)
|   |   |   |   |   |   |   |   |   |   seg-0 > 108: N (10.0/4.0)
|   |   |   |   |   seg-2 > 110
|   |   |   |   |   |   seg-3 <= 148
|   |   |   |   |   |   |   seg-1 <= 120
|   |   |   |   |   |   |   |   seg-0 <= 115
|   |   |   |   |   |   |   |   |   seg-3 <= 133
|   |   |   |   |   |   |   |   |   |   seg-3 <= 127: N (4.0)
|   |   |   |   |   |   |   |   |   |   seg-3 > 127
|   |   |   |   |   |   |   |   |   |   |   seg-0 <= 85
|   |   |   |   |   |   |   |   |   |   |   |   seg-2 <= 125: VF (3.0/1.0)
|   |   |   |   |   |   |   |   |   |   |   |   seg-2 > 125
|   |   |   |   |   |   |   |   |   |   |   |   |   seg-0 <= 60: VT (3.0)
|   |   |   |   |   |   |   |   |   |   |   |   |   seg-0 > 60
|   |   |   |   |   |   |   |   |   |   |   |   |   |   seg-4 <= 90: VT (3.0/1.0)
|   |   |   |   |   |   |   |   |   |   |   |   |   |   seg-4 > 90: N (11.0/2.0)
|   |   |   |   |   |   |   |   |   |   |   seg-0 > 85
|   |   |   |   |   |   |   |   |   |   |   |   seg-1 <= 105
|   |   |   |   |   |   |   |   |   |   |   |   |   seg-4 <= 125
|   |   |   |   |   |   |   |   |   |   |   |   |   |   seg-1 <= 74: VT (2.0)
|   |   |   |   |   |   |   |   |   |   |   |   |   |   seg-1 > 74: AFIB (3.0)
|   |   |   |   |   |   |   |   |   |   |   |   |   seg-4 > 125
|   |   |   |   |   |   |   |   |   |   |   |   |   |   seg-0 <= 95: VF (2.0/1.0)
|   |   |   |   |   |   |   |   |   |   |   |   |   |   seg-0 > 95: VT (3.0/1.0)
|   |   |   |   |   |   |   |   |   |   |   |   seg-1 > 105: N (10.0/5.0)
|   |   |   |   |   |   |   |   |   seg-3 > 133: N (34.0/15.0)
|   |   |   |   |   |   |   |   seg-0 > 115
|   |   |   |   |   |   |   |   |   seg-2 <= 125
|   |   |   |   |   |   |   |   |   |   seg-1 <= 115: AFIB (2.0/1.0)
|   |   |   |   |   |   |   |   |   |   seg-1 > 115: N (4.0)
|   |   |   |   |   |   |   |   |   seg-2 > 125
|   |   |   |   |   |   |   |   |   |   seg-2 <= 175: BI (10.0/2.0)
|   |   |   |   |   |   |   |   |   |   seg-2 > 175: N (2.0/1.0)
|   |   |   |   |   |   |   seg-1 > 120
|   |   |   |   |   |   |   |   seg-2 <= 159
|   |   |   |   |   |   |   |   |   seg-3 <= 142
|   |   |   |   |   |   |   |   |   |   seg-1 <= 145
|   |   |   |   |   |   |   |   |   |   |   seg-0 <= 114
|   |   |   |   |   |   |   |   |   |   |   |   seg-4 <= 105: N (14.0/3.0)
|   |   |   |   |   |   |   |   |   |   |   |   seg-4 > 105
|   |   |   |   |   |   |   |   |   |   |   |   |   seg-4 <= 125: BI (7.0/3.0)
|   |   |   |   |   |   |   |   |   |   |   |   |   seg-4 > 125: N (20.0/4.0)
|   |   |   |   |   |   |   |   |   |   |   seg-0 > 114
|   |   |   |   |   |   |   |   |   |   |   |   seg-3 <= 139
|   |   |   |   |   |   |   |   |   |   |   |   |   seg-4 <= 105: BI (2.0)
|   |   |   |   |   |   |   |   |   |   |   |   |   seg-4 > 105: N (23.0/5.0)
|   |   |   |   |   |   |   |   |   |   |   |   seg-3 > 139
|   |   |   |   |   |   |   |   |   |   |   |   |   seg-1 <= 135
|   |   |   |   |   |   |   |   |   |   |   |   |   |   seg-4 <= 130: N (2.0)
|   |   |   |   |   |   |   |   |   |   |   |   |   |   seg-4 > 130: BI (2.0)
|   |   |   |   |   |   |   |   |   |   |   |   |   seg-1 > 135: BI (4.0/1.0)
|   |   |   |   |   |   |   |   |   |   seg-1 > 145
|   |   |   |   |   |   |   |   |   |   |   seg-0 <= 115
|   |   |   |   |   |   |   |   |   |   |   |   seg-1 <= 198
|   |   |   |   |   |   |   |   |   |   |   |   |   seg-2 <= 123
|   |   |   |   |   |   |   |   |   |   |   |   |   |   seg-1 <= 171: BI (3.0)
|   |   |   |   |   |   |   |   |   |   |   |   |   |   seg-1 > 171: N (2.0/1.0)
|   |   |   |   |   |   |   |   |   |   |   |   |   seg-2 > 123
|   |   |   |   |   |   |   |   |   |   |   |   |   |   seg-4 <= 123
|   |   |   |   |   |   |   |   |   |   |   |   |   |   |   seg-1 <= 172: BI (26.0/3.0)
|   |   |   |   |   |   |   |   |   |   |   |   |   |   |   seg-1 > 172
|   |   |   |   |   |   |   |   |   |   |   |   |   |   |   |   seg-2 <= 141
|   |   |   |   |   |   |   |   |   |   |   |   |   |   |   |   |   seg-0 <= 81: N (15.0/3.0)
|   |   |   |   |   |   |   |   |   |   |   |   |   |   |   |   |   seg-0 > 81
|   |   |   |   |   |   |   |   |   |   |   |   |   |   |   |   |   |   seg-3 <= 138: N (3.0/1.0)
|   |   |   |   |   |   |   |   |   |   |   |   |   |   |   |   |   |   seg-3 > 138: BI (3.0)
|   |   |   |   |   |   |   |   |   |   |   |   |   |   |   |   seg-2 > 141: BI (7.0)
|   |   |   |   |   |   |   |   |   |   |   |   |   |   seg-4 > 123: N (48.0/19.0)
|   |   |   |   |   |   |   |   |   |   |   |   seg-1 > 198: N (7.0/2.0)
|   |   |   |   |   |   |   |   |   |   |   seg-0 > 115: BI (9.0/3.0)
|   |   |   |   |   |   |   |   |   seg-3 > 142: N (12.0/1.0)
|   |   |   |   |   |   |   |   seg-2 > 159
|   |   |   |   |   |   |   |   |   seg-0 <= 85
|   |   |   |   |   |   |   |   |   |   seg-0 <= 74: PM (2.0/1.0)
|   |   |   |   |   |   |   |   |   |   seg-0 > 74: N (2.0)
|   |   |   |   |   |   |   |   |   seg-0 > 85
|   |   |   |   |   |   |   |   |   |   seg-3 <= 135
|   |   |   |   |   |   |   |   |   |   |   seg-0 <= 110: VF (2.0)
|   |   |   |   |   |   |   |   |   |   |   seg-0 > 110: AFIB (2.0/1.0)
|   |   |   |   |   |   |   |   |   |   seg-3 > 135: AFIB (2.0/1.0)
|   |   |   |   |   |   seg-3 > 148
|   |   |   |   |   |   |   seg-0 <= 110
|   |   |   |   |   |   |   |   seg-3 <= 213
|   |   |   |   |   |   |   |   |   seg-2 <= 159
|   |   |   |   |   |   |   |   |   |   seg-4 <= 135
|   |   |   |   |   |   |   |   |   |   |   seg-1 <= 50: VF (4.0)
|   |   |   |   |   |   |   |   |   |   |   seg-1 > 50
|   |   |   |   |   |   |   |   |   |   |   |   seg-2 <= 116: N (3.0)
|   |   |   |   |   |   |   |   |   |   |   |   seg-2 > 116
|   |   |   |   |   |   |   |   |   |   |   |   |   seg-0 <= 82
|   |   |   |   |   |   |   |   |   |   |   |   |   |   seg-4 <= 105
|   |   |   |   |   |   |   |   |   |   |   |   |   |   |   seg-4 <= 95
|   |   |   |   |   |   |   |   |   |   |   |   |   |   |   |   seg-0 <= 54: VF (4.0/2.0)
|   |   |   |   |   |   |   |   |   |   |   |   |   |   |   |   seg-0 > 54: VT (2.0)
|   |   |   |   |   |   |   |   |   |   |   |   |   |   |   seg-4 > 95: VF (5.0/2.0)
|   |   |   |   |   |   |   |   |   |   |   |   |   |   seg-4 > 105: N (3.0/2.0)
|   |   |   |   |   |   |   |   |   |   |   |   |   seg-0 > 82
|   |   |   |   |   |   |   |   |   |   |   |   |   |   seg-0 <= 95: N (7.0/1.0)
|   |   |   |   |   |   |   |   |   |   |   |   |   |   seg-0 > 95
|   |   |   |   |   |   |   |   |   |   |   |   |   |   |   seg-3 <= 185
|   |   |   |   |   |   |   |   |   |   |   |   |   |   |   |   seg-0 <= 105
|   |   |   |   |   |   |   |   |   |   |   |   |   |   |   |   |   seg-4 <= 105: VFL (3.0/1.0)
|   |   |   |   |   |   |   |   |   |   |   |   |   |   |   |   |   seg-4 > 105: AFIB (2.0)
|   |   |   |   |   |   |   |   |   |   |   |   |   |   |   |   seg-0 > 105: VT (4.0/2.0)
|   |   |   |   |   |   |   |   |   |   |   |   |   |   |   seg-3 > 185: N (3.0/1.0)
|   |   |   |   |   |   |   |   |   |   seg-4 > 135
|   |   |   |   |   |   |   |   |   |   |   seg-4 <= 175
|   |   |   |   |   |   |   |   |   |   |   |   seg-1 <= 150
|   |   |   |   |   |   |   |   |   |   |   |   |   seg-1 <= 80
|   |   |   |   |   |   |   |   |   |   |   |   |   |   seg-0 <= 85: N (2.0)
|   |   |   |   |   |   |   |   |   |   |   |   |   |   seg-0 > 85: HGEA (2.0/1.0)
|   |   |   |   |   |   |   |   |   |   |   |   |   seg-1 > 80: VFL (16.0/3.0)
|   |   |   |   |   |   |   |   |   |   |   |   seg-1 > 150
|   |   |   |   |   |   |   |   |   |   |   |   |   seg-1 <= 195: BI (7.0/1.0)
|   |   |   |   |   |   |   |   |   |   |   |   |   seg-1 > 195: N (5.0/1.0)
|   |   |   |   |   |   |   |   |   |   |   seg-4 > 175
|   |   |   |   |   |   |   |   |   |   |   |   seg-1 <= 220
|   |   |   |   |   |   |   |   |   |   |   |   |   seg-4 <= 185: VT (3.0/1.0)
|   |   |   |   |   |   |   |   |   |   |   |   |   seg-4 > 185: VF (4.0/1.0)
|   |   |   |   |   |   |   |   |   |   |   |   seg-1 > 220: AFIB (2.0/1.0)
|   |   |   |   |   |   |   |   |   seg-2 > 159
|   |   |   |   |   |   |   |   |   |   seg-2 <= 175
|   |   |   |   |   |   |   |   |   |   |   seg-0 <= 65: VFL (7.0)
|   |   |   |   |   |   |   |   |   |   |   seg-0 > 65
|   |   |   |   |   |   |   |   |   |   |   |   seg-3 <= 175
|   |   |   |   |   |   |   |   |   |   |   |   |   seg-2 <= 165
|   |   |   |   |   |   |   |   |   |   |   |   |   |   seg-4 <= 145: BI (2.0/1.0)
|   |   |   |   |   |   |   |   |   |   |   |   |   |   seg-4 > 145: N (2.0)
|   |   |   |   |   |   |   |   |   |   |   |   |   seg-2 > 165
|   |   |   |   |   |   |   |   |   |   |   |   |   |   seg-1 <= 95: N (3.0/1.0)
|   |   |   |   |   |   |   |   |   |   |   |   |   |   seg-1 > 95: VFL (3.0)
|   |   |   |   |   |   |   |   |   |   |   |   seg-3 > 175: N (4.0/1.0)
|   |   |   |   |   |   |   |   |   |   seg-2 > 175
|   |   |   |   |   |   |   |   |   |   |   seg-4 <= 155: VFL (3.0)
|   |   |   |   |   |   |   |   |   |   |   seg-4 > 155: VF (2.0)
|   |   |   |   |   |   |   |   seg-3 > 213
